<?xml version="1.0"?>
<MethodSetup Method="BDT::BDT">
  <GeneralInfo>
    <Info name="TMVA Release" value="4.1.2 [262402]"/>
    <Info name="ROOT Release" value="5.32/00 [335872]"/>
    <Info name="Creator" value="jhugon"/>
    <Info name="Date" value="Tue Feb 12 20:47:11 2013"/>
    <Info name="Host" value="Linux uftrig01 2.6.18-274.17.1.el5 #1 SMP Wed Jan 11 11:10:32 CET 2012 x86_64 x86_64 x86_64 GNU/Linux"/>
    <Info name="Dir" value="/data/uftrig01b/jhugon/hmumu/analysisV00-01-10"/>
    <Info name="Training events" value="9028"/>
    <Info name="TrainingTime" value="8.04486609e+00"/>
    <Info name="AnalysisType" value="Classification"/>
  </GeneralInfo>
  <Options>
    <Option name="V" modified="Yes">False</Option>
    <Option name="VerbosityLevel" modified="No">Default</Option>
    <Option name="VarTransform" modified="No">None</Option>
    <Option name="H" modified="Yes">False</Option>
    <Option name="CreateMVAPdfs" modified="No">False</Option>
    <Option name="IgnoreNegWeightsInTraining" modified="No">False</Option>
    <Option name="NTrees" modified="Yes">850</Option>
    <Option name="RenormByClass" modified="No">False</Option>
    <Option name="BoostType" modified="Yes">AdaBoost</Option>
    <Option name="AdaBoostR2Loss" modified="No">quadratic</Option>
    <Option name="UseBaggedGrad" modified="No">False</Option>
    <Option name="GradBaggingFraction" modified="No">6.000000e-01</Option>
    <Option name="Shrinkage" modified="No">1.000000e+00</Option>
    <Option name="AdaBoostBeta" modified="Yes">5.000000e-01</Option>
    <Option name="UseRandomisedTrees" modified="No">False</Option>
    <Option name="UseNvars" modified="No">3</Option>
    <Option name="UsePoissonNvars" modified="No">True</Option>
    <Option name="UseNTrainEvents" modified="No">9028</Option>
    <Option name="UseWeightedTrees" modified="No">True</Option>
    <Option name="UseYesNoLeaf" modified="No">True</Option>
    <Option name="NodePurityLimit" modified="No">5.000000e-01</Option>
    <Option name="SeparationType" modified="Yes">giniindex</Option>
    <Option name="nEventsMin" modified="Yes">300</Option>
    <Option name="nCuts" modified="Yes">20</Option>
    <Option name="UseFisherCuts" modified="No">False</Option>
    <Option name="MinLinCorrForFisher" modified="No">8.000000e-01</Option>
    <Option name="UseExclusiveVars" modified="No">False</Option>
    <Option name="PruneStrength" modified="No">0.000000e+00</Option>
    <Option name="PruneMethod" modified="Yes">nopruning</Option>
    <Option name="PruneBeforeBoost" modified="No">False</Option>
    <Option name="PruningValFraction" modified="No">5.000000e-01</Option>
    <Option name="NNodesMax" modified="No">100000</Option>
    <Option name="MaxDepth" modified="Yes">3</Option>
    <Option name="DoBoostMonitor" modified="No">False</Option>
    <Option name="NegWeightTreatment" modified="No">inverseboostnegweights</Option>
  </Options>
  <Variables NVar="8">
    <Variable VarIndex="0" Expression="ptDiMu" Label="ptDiMu" Title="ptDiMu" Unit="" Internal="ptDiMu" Type="F" Min="1.15631066e-01" Max="5.76289917e+02"/>
    <Variable VarIndex="1" Expression="yDiMu" Label="yDiMu" Title="yDiMu" Unit="" Internal="yDiMu" Type="F" Min="-2.05189991e+00" Max="2.08634520e+00"/>
    <Variable VarIndex="2" Expression="mDiJet" Label="mDiJet" Title="mDiJet" Unit="" Internal="mDiJet" Type="F" Min="3.00016205e+02" Max="3.45749097e+03"/>
    <Variable VarIndex="3" Expression="ptDiJet" Label="ptDiJet" Title="ptDiJet" Unit="" Internal="ptDiJet" Type="F" Min="6.64178729e-01" Max="6.13370422e+02"/>
    <Variable VarIndex="4" Expression="yDiJet" Label="yDiJet" Title="yDiJet" Unit="" Internal="yDiJet" Type="F" Min="-2.33086967e+00" Max="2.25485158e+00"/>
    <Variable VarIndex="5" Expression="cosThetaStar" Label="cosThetaStar" Title="cosThetaStar" Unit="" Internal="cosThetaStar" Type="F" Min="-9.99466777e-01" Max="9.97361124e-01"/>
    <Variable VarIndex="6" Expression="deltaEtaJets" Label="deltaEtaJets" Title="deltaEtaJets" Unit="" Internal="deltaEtaJets" Type="F" Min="3.00024605e+00" Max="8.43621540e+00"/>
    <Variable VarIndex="7" Expression="ptmiss" Label="ptmiss" Title="ptmiss" Unit="" Internal="ptmiss" Type="F" Min="1.38743654e-01" Max="4.99652679e+02"/>
  </Variables>
  <Spectators NSpec="28">
    <Spectator SpecIndex="0" Expression="mDiMu" Label="mDiMu" Title="mDiMu" Unit="" Internal="mDiMu" Type="F" Min="7.00504456e+01" Max="1.59896805e+02"/>
    <Spectator SpecIndex="1" Expression="ptMu1" Label="ptMu1" Title="ptMu1" Unit="" Internal="ptMu1" Type="F" Min="2.57879353e+01" Max="5.50168396e+02"/>
    <Spectator SpecIndex="2" Expression="ptMu2" Label="ptMu2" Title="ptMu2" Unit="" Internal="ptMu2" Type="F" Min="2.50019894e+01" Max="2.29463409e+02"/>
    <Spectator SpecIndex="3" Expression="etaMu1" Label="etaMu1" Title="etaMu1" Unit="" Internal="etaMu1" Type="F" Min="-2.09890437e+00" Max="2.09921718e+00"/>
    <Spectator SpecIndex="4" Expression="etaMu2" Label="etaMu2" Title="etaMu2" Unit="" Internal="etaMu2" Type="F" Min="-2.09895277e+00" Max="2.09959769e+00"/>
    <Spectator SpecIndex="5" Expression="ptJet1" Label="ptJet1" Title="ptJet1" Unit="" Internal="ptJet1" Type="F" Min="2.91868095e+01" Max="5.68305359e+02"/>
    <Spectator SpecIndex="6" Expression="ptJet2" Label="ptJet2" Title="ptJet2" Unit="" Internal="ptJet2" Type="F" Min="2.75152473e+01" Max="3.16723206e+02"/>
    <Spectator SpecIndex="7" Expression="etaJet1" Label="etaJet1" Title="etaJet1" Unit="" Internal="etaJet1" Type="F" Min="-4.54360914e+00" Max="4.62660074e+00"/>
    <Spectator SpecIndex="8" Expression="etaJet2" Label="etaJet2" Title="etaJet2" Unit="" Internal="etaJet2" Type="F" Min="-4.67896271e+00" Max="4.68609381e+00"/>
    <Spectator SpecIndex="9" Expression="cosThetaStarCS" Label="cosThetaStarCS" Title="cosThetaStarCS" Unit="" Internal="cosThetaStarCS" Type="F" Min="-9.99747813e-01" Max="9.99829590e-01"/>
    <Spectator SpecIndex="10" Expression="productEtaJets" Label="productEtaJets" Title="productEtaJets" Unit="" Internal="productEtaJets" Type="F" Min="-1.77879887e+01" Max="-1.88591937e-03"/>
    <Spectator SpecIndex="11" Expression="nJetsInRapidityGap" Label="nJetsInRapidityGap" Title="nJetsInRapidityGap" Unit="" Internal="nJetsInRapidityGap" Type="F" Min="0.00000000e+00" Max="6.00000000e+00"/>
    <Spectator SpecIndex="12" Expression="deltaEtaMuons" Label="deltaEtaMuons" Title="deltaEtaMuons" Unit="" Internal="deltaEtaMuons" Type="F" Min="1.25050545e-04" Max="3.36116838e+00"/>
    <Spectator SpecIndex="13" Expression="deltaPhiMuons" Label="deltaPhiMuons" Title="deltaPhiMuons" Unit="" Internal="deltaPhiMuons" Type="F" Min="-3.14156818e+00" Max="3.14132738e+00"/>
    <Spectator SpecIndex="14" Expression="deltaRMuons" Label="deltaRMuons" Title="deltaRMuons" Unit="" Internal="deltaRMuons" Type="F" Min="3.75337064e-01" Max="4.09585333e+00"/>
    <Spectator SpecIndex="15" Expression="deltaPhiJets" Label="deltaPhiJets" Title="deltaPhiJets" Unit="" Internal="deltaPhiJets" Type="F" Min="-3.14147758e+00" Max="3.14151788e+00"/>
    <Spectator SpecIndex="16" Expression="deltaRJets" Label="deltaRJets" Title="deltaRJets" Unit="" Internal="deltaRJets" Type="F" Min="3.00412297e+00" Max="8.73409653e+00"/>
    <Spectator SpecIndex="17" Expression="deltaPhiHJ1" Label="deltaPhiHJ1" Title="deltaPhiHJ1" Unit="" Internal="deltaPhiHJ1" Type="F" Min="-3.14156461e+00" Max="3.14131999e+00"/>
    <Spectator SpecIndex="18" Expression="relIsoMu1" Label="relIsoMu1" Title="relIsoMu1" Unit="" Internal="relIsoMu1" Type="F" Min="-1.52822247e+01" Max="1.19927317e-01"/>
    <Spectator SpecIndex="19" Expression="relIsoMu2" Label="relIsoMu2" Title="relIsoMu2" Unit="" Internal="relIsoMu2" Type="F" Min="-3.69788551e+01" Max="1.19971894e-01"/>
    <Spectator SpecIndex="20" Expression="ht" Label="ht" Title="ht" Unit="" Internal="ht" Type="F" Min="6.02257156e+01" Max="9.58366089e+02"/>
    <Spectator SpecIndex="21" Expression="nJets" Label="nJets" Title="nJets" Unit="" Internal="nJets" Type="F" Min="2.00000000e+00" Max="8.00000000e+00"/>
    <Spectator SpecIndex="22" Expression="nVtx" Label="nVtx" Title="nVtx" Unit="" Internal="nVtx" Type="F" Min="1.00000000e+00" Max="3.60000000e+01"/>
    <Spectator SpecIndex="23" Expression="htInRapidityGap" Label="htInRapidityGap" Title="htInRapidityGap" Unit="" Internal="htInRapidityGap" Type="F" Min="0.00000000e+00" Max="4.04481812e+02"/>
    <Spectator SpecIndex="24" Expression="met" Label="met" Title="met" Unit="" Internal="met" Type="F" Min="2.80780166e-01" Max="3.92655518e+02"/>
    <Spectator SpecIndex="25" Expression="puJetIDSimpleDiscJet1" Label="puJetIDSimpleDiscJet1" Title="puJetIDSimpleDiscJet1" Unit="" Internal="puJetIDSimpleDiscJet1" Type="F" Min="-9.99994755e-01" Max="9.99238372e-01"/>
    <Spectator SpecIndex="26" Expression="puJetIDSimpleDiscJet2" Label="puJetIDSimpleDiscJet2" Title="puJetIDSimpleDiscJet2" Unit="" Internal="puJetIDSimpleDiscJet2" Type="F" Min="-9.99929905e-01" Max="9.98939335e-01"/>
    <Spectator SpecIndex="27" Expression="puJetIDSimpleDiscJet3" Label="puJetIDSimpleDiscJet3" Title="puJetIDSimpleDiscJet3" Unit="" Internal="puJetIDSimpleDiscJet3" Type="F" Min="-1.00000000e+01" Max="9.99238372e-01"/>
  </Spectators>
  <Classes NClass="2">
    <Class Name="Signal" Index="0"/>
    <Class Name="Background" Index="1"/>
  </Classes>
  <Transformations NTransformations="0"/>
  <MVAPdfs/>
  <Weights NTrees="850" AnalysisType="0">
    <BinaryTree type="DecisionTree" boostWeight="1.0352832984577622e+00" itree="0">
      <Node pos="s" depth="0" NCoef="0" IVar="-1" Cut="7.5108404541015625e+02" cType="0" res="-9.9000000000000000e+01" rms="0.0000000000000000e+00" purity="1.1199067533016205e-01" nType="-1"/>
    </BinaryTree>
    <BinaryTree type="DecisionTree" boostWeight="6.3437517842830393e-01" itree="1">
      <Node pos="s" depth="0" NCoef="0" IVar="2" Cut="6.0072808837890625e+02" cType="0" res="-9.9000000000000000e+01" rms="0.0000000000000000e+00" purity="2.6206111907958984e-01" nType="0">
        <Node pos="l" depth="1" NCoef="0" IVar="7" Cut="2.4123542785644531e+01" cType="1" res="-9.9000000000000000e+01" rms="0.0000000000000000e+00" purity="4.1951373219490051e-01" nType="0">
          <Node pos="l" depth="2" NCoef="0" IVar="6" Cut="4.8524885177612305e+00" cType="0" res="-9.9000000000000000e+01" rms="0.0000000000000000e+00" purity="5.9366261959075928e-01" nType="0">
            <Node pos="l" depth="3" NCoef="0" IVar="-1" Cut="0.0000000000000000e+00" cType="1" res="-9.9000000000000000e+01" rms="0.0000000000000000e+00" purity="6.8425703048706055e-01" nType="1"/>
            <Node pos="r" depth="3" NCoef="0" IVar="-1" Cut="0.0000000000000000e+00" cType="1" res="-9.9000000000000000e+01" rms="0.0000000000000000e+00" purity="4.5173946022987366e-01" nType="-1"/>
          </Node>
          <Node pos="r" depth="2" NCoef="0" IVar="0" Cut="1.3793576049804688e+02" cType="0" res="-9.9000000000000000e+01" rms="0.0000000000000000e+00" purity="2.7928629517555237e-01" nType="0">
            <Node pos="l" depth="3" NCoef="0" IVar="-1" Cut="0.0000000000000000e+00" cType="1" res="-9.9000000000000000e+01" rms="0.0000000000000000e+00" purity="5.0954824686050415e-01" nType="1"/>
            <Node pos="r" depth="3" NCoef="0" IVar="-1" Cut="0.0000000000000000e+00" cType="1" res="-9.9000000000000000e+01" rms="0.0000000000000000e+00" purity="1.8939529359340668e-01" nType="-1"/>
          </Node>
        </Node>
        <Node pos="r" depth="1" NCoef="0" IVar="0" Cut="6.7288795471191406e+01" cType="0" res="-9.9000000000000000e+01" rms="0.0000000000000000e+00" purity="1.8242031335830688e-01" nType="0">
          <Node pos="l" depth="2" NCoef="0" IVar="5" Cut="6.1929970979690552e-01" cType="0" res="-9.9000000000000000e+01" rms="0.0000000000000000e+00" purity="3.1336677074432373e-01" nType="0">
            <Node pos="l" depth="3" NCoef="0" IVar="-1" Cut="0.0000000000000000e+00" cType="1" res="-9.9000000000000000e+01" rms="0.0000000000000000e+00" purity="5.8150053024291992e-01" nType="1"/>
            <Node pos="r" depth="3" NCoef="0" IVar="-1" Cut="0.0000000000000000e+00" cType="1" res="-9.9000000000000000e+01" rms="0.0000000000000000e+00" purity="2.5694990158081055e-01" nType="-1"/>
          </Node>
          <Node pos="r" depth="2" NCoef="0" IVar="-1" Cut="4.9155321121215820e+00" cType="0" res="-9.9000000000000000e+01" rms="0.0000000000000000e+00" purity="8.7856121361255646e-02" nType="-1"/>
        </Node>
      </Node>
    </BinaryTree>
    <BinaryTree type="DecisionTree" boostWeight="3.9952420623193569e-01" itree="2">
      <Node pos="s" depth="0" NCoef="0" IVar="0" Cut="5.4989372253417969e+01" cType="0" res="-9.9000000000000000e+01" rms="0.0000000000000000e+00" purity="3.2673209905624390e-01" nType="0">
        <Node pos="l" depth="1" NCoef="0" IVar="7" Cut="4.7711498260498047e+01" cType="1" res="-9.9000000000000000e+01" rms="0.0000000000000000e+00" purity="4.1473788022994995e-01" nType="0">
          <Node pos="l" depth="2" NCoef="0" IVar="7" Cut="3.1849630355834961e+01" cType="1" res="-9.9000000000000000e+01" rms="0.0000000000000000e+00" purity="4.6472179889678955e-01" nType="0">
            <Node pos="l" depth="3" NCoef="0" IVar="-1" Cut="0.0000000000000000e+00" cType="1" res="-9.9000000000000000e+01" rms="0.0000000000000000e+00" purity="5.2221518754959106e-01" nType="1"/>
            <Node pos="r" depth="3" NCoef="0" IVar="-1" Cut="0.0000000000000000e+00" cType="1" res="-9.9000000000000000e+01" rms="0.0000000000000000e+00" purity="2.4450030922889709e-01" nType="-1"/>
          </Node>
          <Node pos="r" depth="2" NCoef="0" IVar="-1" Cut="4.6050410270690918e+00" cType="0" res="-9.9000000000000000e+01" rms="0.0000000000000000e+00" purity="2.2792266309261322e-01" nType="-1"/>
        </Node>
        <Node pos="r" depth="1" NCoef="0" IVar="-1" Cut="4.8124036788940430e+00" cType="0" res="-9.9000000000000000e+01" rms="0.0000000000000000e+00" purity="1.9811858236789703e-01" nType="-1"/>
      </Node>
    </BinaryTree>
    <BinaryTree type="DecisionTree" boostWeight="3.8525632133561405e-01" itree="3">
      <Node pos="s" depth="0" NCoef="0" IVar="2" Cut="7.5108404541015625e+02" cType="0" res="-9.9000000000000000e+01" rms="0.0000000000000000e+00" purity="3.4011489152908325e-01" nType="0">
        <Node pos="l" depth="1" NCoef="0" IVar="7" Cut="7.1676452636718750e+01" cType="1" res="-9.9000000000000000e+01" rms="0.0000000000000000e+00" purity="5.0286364555358887e-01" nType="0">
          <Node pos="l" depth="2" NCoef="0" IVar="6" Cut="4.5669841766357422e+00" cType="0" res="-9.9000000000000000e+01" rms="0.0000000000000000e+00" purity="5.3235805034637451e-01" nType="0">
            <Node pos="l" depth="3" NCoef="0" IVar="-1" Cut="0.0000000000000000e+00" cType="1" res="-9.9000000000000000e+01" rms="0.0000000000000000e+00" purity="5.8287733793258667e-01" nType="1"/>
            <Node pos="r" depth="3" NCoef="0" IVar="-1" Cut="0.0000000000000000e+00" cType="1" res="-9.9000000000000000e+01" rms="0.0000000000000000e+00" purity="3.9905881881713867e-01" nType="-1"/>
          </Node>
          <Node pos="r" depth="2" NCoef="0" IVar="-1" Cut="0.0000000000000000e+00" cType="1" res="-9.9000000000000000e+01" rms="0.0000000000000000e+00" purity="1.4209164679050446e-01" nType="-1"/>
        </Node>
        <Node pos="r" depth="1" NCoef="0" IVar="-1" Cut="8.9679855346679688e+01" cType="0" res="-9.9000000000000000e+01" rms="0.0000000000000000e+00" purity="2.9588022828102112e-01" nType="-1"/>
      </Node>
    </BinaryTree>
    <BinaryTree type="DecisionTree" boostWeight="2.1188271213335638e-01" itree="4">
      <Node pos="s" depth="0" NCoef="0" IVar="0" Cut="2.7552501678466797e+01" cType="0" res="-9.9000000000000000e+01" rms="0.0000000000000000e+00" purity="4.0108212828636169e-01" nType="0">
        <Node pos="l" depth="1" NCoef="0" IVar="1" Cut="9.0398943424224854e-01" cType="1" res="-9.9000000000000000e+01" rms="0.0000000000000000e+00" purity="4.3696212768554688e-01" nType="0">
          <Node pos="l" depth="2" NCoef="0" IVar="1" Cut="-1.2073841094970703e+00" cType="0" res="-9.9000000000000000e+01" rms="0.0000000000000000e+00" purity="4.6511229872703552e-01" nType="0">
            <Node pos="l" depth="3" NCoef="0" IVar="-1" Cut="0.0000000000000000e+00" cType="1" res="-9.9000000000000000e+01" rms="0.0000000000000000e+00" purity="5.0015729665756226e-01" nType="1"/>
            <Node pos="r" depth="3" NCoef="0" IVar="-1" Cut="0.0000000000000000e+00" cType="1" res="-9.9000000000000000e+01" rms="0.0000000000000000e+00" purity="2.8888422250747681e-01" nType="-1"/>
          </Node>
          <Node pos="r" depth="2" NCoef="0" IVar="4" Cut="2.9722306132316589e-01" cType="0" res="-9.9000000000000000e+01" rms="0.0000000000000000e+00" purity="3.1586375832557678e-01" nType="0">
            <Node pos="l" depth="3" NCoef="0" IVar="-1" Cut="0.0000000000000000e+00" cType="1" res="-9.9000000000000000e+01" rms="0.0000000000000000e+00" purity="5.3906351327896118e-01" nType="1"/>
            <Node pos="r" depth="3" NCoef="0" IVar="-1" Cut="0.0000000000000000e+00" cType="1" res="-9.9000000000000000e+01" rms="0.0000000000000000e+00" purity="1.5405116975307465e-01" nType="-1"/>
          </Node>
        </Node>
        <Node pos="r" depth="1" NCoef="0" IVar="-1" Cut="6.9757986068725586e-01" cType="0" res="-9.9000000000000000e+01" rms="0.0000000000000000e+00" purity="1.9244392216205597e-01" nType="-1"/>
      </Node>
    </BinaryTree>
    <BinaryTree type="DecisionTree" boostWeight="2.4420968772421109e-01" itree="5">
      <Node pos="s" depth="0" NCoef="0" IVar="0" Cut="8.2426246643066406e+01" cType="0" res="-9.9000000000000000e+01" rms="0.0000000000000000e+00" purity="3.8319084048271179e-01" nType="0">
        <Node pos="l" depth="1" NCoef="0" IVar="6" Cut="3.2290115356445312e+00" cType="0" res="-9.9000000000000000e+01" rms="0.0000000000000000e+00" purity="4.6199998259544373e-01" nType="0">
          <Node pos="l" depth="2" NCoef="0" IVar="7" Cut="7.1497879028320312e+01" cType="1" res="-9.9000000000000000e+01" rms="0.0000000000000000e+00" purity="4.8421773314476013e-01" nType="0">
            <Node pos="l" depth="3" NCoef="0" IVar="-1" Cut="0.0000000000000000e+00" cType="1" res="-9.9000000000000000e+01" rms="0.0000000000000000e+00" purity="5.0401121377944946e-01" nType="1"/>
            <Node pos="r" depth="3" NCoef="0" IVar="-1" Cut="0.0000000000000000e+00" cType="1" res="-9.9000000000000000e+01" rms="0.0000000000000000e+00" purity="2.2712159156799316e-01" nType="-1"/>
          </Node>
          <Node pos="r" depth="2" NCoef="0" IVar="-1" Cut="0.0000000000000000e+00" cType="1" res="-9.9000000000000000e+01" rms="0.0000000000000000e+00" purity="2.4824672937393188e-01" nType="-1"/>
        </Node>
        <Node pos="r" depth="1" NCoef="0" IVar="-1" Cut="4.8124036788940430e+00" cType="0" res="-9.9000000000000000e+01" rms="0.0000000000000000e+00" purity="3.2289198040962219e-01" nType="-1"/>
      </Node>
    </BinaryTree>
    <BinaryTree type="DecisionTree" boostWeight="2.7628302189795112e-01" itree="6">
      <Node pos="s" depth="0" NCoef="0" IVar="6" Cut="4.8122358322143555e+00" cType="0" res="-9.9000000000000000e+01" rms="0.0000000000000000e+00" purity="3.9663639664649963e-01" nType="0">
        <Node pos="l" depth="1" NCoef="0" IVar="0" Cut="1.7276313781738281e+01" cType="0" res="-9.9000000000000000e+01" rms="0.0000000000000000e+00" purity="4.9151805043220520e-01" nType="0">
          <Node pos="l" depth="2" NCoef="0" IVar="5" Cut="-2.4427232146263123e-01" cType="0" res="-9.9000000000000000e+01" rms="0.0000000000000000e+00" purity="5.2039027214050293e-01" nType="0">
            <Node pos="l" depth="3" NCoef="0" IVar="-1" Cut="0.0000000000000000e+00" cType="1" res="-9.9000000000000000e+01" rms="0.0000000000000000e+00" purity="5.8371090888977051e-01" nType="1"/>
            <Node pos="r" depth="3" NCoef="0" IVar="-1" Cut="0.0000000000000000e+00" cType="1" res="-9.9000000000000000e+01" rms="0.0000000000000000e+00" purity="3.5882693529129028e-01" nType="-1"/>
          </Node>
          <Node pos="r" depth="2" NCoef="0" IVar="-1" Cut="0.0000000000000000e+00" cType="1" res="-9.9000000000000000e+01" rms="0.0000000000000000e+00" purity="1.4619588851928711e-01" nType="-1"/>
        </Node>
        <Node pos="r" depth="1" NCoef="0" IVar="-1" Cut="9.0398943424224854e-01" cType="1" res="-9.9000000000000000e+01" rms="0.0000000000000000e+00" purity="3.5926291346549988e-01" nType="-1"/>
      </Node>
    </BinaryTree>
    <BinaryTree type="DecisionTree" boostWeight="1.7889167398952099e-01" itree="7">
      <Node pos="s" depth="0" NCoef="0" IVar="7" Cut="4.7711498260498047e+01" cType="1" res="-9.9000000000000000e+01" rms="0.0000000000000000e+00" purity="4.3723142147064209e-01" nType="0">
        <Node pos="l" depth="1" NCoef="0" IVar="1" Cut="9.0398943424224854e-01" cType="1" res="-9.9000000000000000e+01" rms="0.0000000000000000e+00" purity="4.6369960904121399e-01" nType="0">
          <Node pos="l" depth="2" NCoef="0" IVar="4" Cut="5.6458282470703125e-01" cType="1" res="-9.9000000000000000e+01" rms="0.0000000000000000e+00" purity="4.8880675435066223e-01" nType="0">
            <Node pos="l" depth="3" NCoef="0" IVar="-1" Cut="0.0000000000000000e+00" cType="1" res="-9.9000000000000000e+01" rms="0.0000000000000000e+00" purity="5.2447122335433960e-01" nType="1"/>
            <Node pos="r" depth="3" NCoef="0" IVar="-1" Cut="0.0000000000000000e+00" cType="1" res="-9.9000000000000000e+01" rms="0.0000000000000000e+00" purity="3.6456730961799622e-01" nType="-1"/>
          </Node>
          <Node pos="r" depth="2" NCoef="0" IVar="-1" Cut="-1.0226169228553772e-01" cType="0" res="-9.9000000000000000e+01" rms="0.0000000000000000e+00" purity="3.5452893376350403e-01" nType="-1"/>
        </Node>
        <Node pos="r" depth="1" NCoef="0" IVar="-1" Cut="5.5053184509277344e+01" cType="0" res="-9.9000000000000000e+01" rms="0.0000000000000000e+00" purity="3.0576306581497192e-01" nType="-1"/>
      </Node>
    </BinaryTree>
    <BinaryTree type="DecisionTree" boostWeight="1.5470178614716501e-01" itree="8">
      <Node pos="s" depth="0" NCoef="0" IVar="4" Cut="-1.0206636190414429e+00" cType="0" res="-9.9000000000000000e+01" rms="0.0000000000000000e+00" purity="4.3388369679450989e-01" nType="0">
        <Node pos="l" depth="1" NCoef="0" IVar="1" Cut="-1.2636626958847046e+00" cType="0" res="-9.9000000000000000e+01" rms="0.0000000000000000e+00" purity="4.4845369458198547e-01" nType="0">
          <Node pos="l" depth="2" NCoef="0" IVar="7" Cut="2.3925121307373047e+01" cType="1" res="-9.9000000000000000e+01" rms="0.0000000000000000e+00" purity="4.6719264984130859e-01" nType="0">
            <Node pos="l" depth="3" NCoef="0" IVar="-1" Cut="0.0000000000000000e+00" cType="1" res="-9.9000000000000000e+01" rms="0.0000000000000000e+00" purity="5.1288878917694092e-01" nType="1"/>
            <Node pos="r" depth="3" NCoef="0" IVar="-1" Cut="0.0000000000000000e+00" cType="1" res="-9.9000000000000000e+01" rms="0.0000000000000000e+00" purity="4.1999477148056030e-01" nType="-1"/>
          </Node>
          <Node pos="r" depth="2" NCoef="0" IVar="-1" Cut="3.4740090370178223e-01" cType="1" res="-9.9000000000000000e+01" rms="0.0000000000000000e+00" purity="3.0838379263877869e-01" nType="-1"/>
        </Node>
        <Node pos="r" depth="1" NCoef="0" IVar="-1" Cut="2.7409765124320984e-01" cType="1" res="-9.9000000000000000e+01" rms="0.0000000000000000e+00" purity="2.6716637611389160e-01" nType="-1"/>
      </Node>
    </BinaryTree>
    <BinaryTree type="DecisionTree" boostWeight="1.3177231177688309e-01" itree="9">
      <Node pos="s" depth="0" NCoef="0" IVar="0" Cut="2.7552501678466797e+01" cType="0" res="-9.9000000000000000e+01" rms="0.0000000000000000e+00" purity="4.3995681405067444e-01" nType="0">
        <Node pos="l" depth="1" NCoef="0" IVar="-1" Cut="-1.1509430408477783e+00" cType="0" res="-9.9000000000000000e+01" rms="0.0000000000000000e+00" purity="4.5926913619041443e-01" nType="-1"/>
        <Node pos="r" depth="1" NCoef="0" IVar="4" Cut="6.9757986068725586e-01" cType="0" res="-9.9000000000000000e+01" rms="0.0000000000000000e+00" purity="3.1093460321426392e-01" nType="0">
          <Node pos="l" depth="2" NCoef="0" IVar="-1" Cut="0.0000000000000000e+00" cType="1" res="-9.9000000000000000e+01" rms="0.0000000000000000e+00" purity="5.7421463727951050e-01" nType="1"/>
          <Node pos="r" depth="2" NCoef="0" IVar="-1" Cut="4.1013201904296875e+02" cType="0" res="-9.9000000000000000e+01" rms="0.0000000000000000e+00" purity="2.0714174211025238e-01" nType="-1"/>
        </Node>
      </Node>
    </BinaryTree>
    <BinaryTree type="DecisionTree" boostWeight="1.3333936596252988e-01" itree="10">
      <Node pos="s" depth="0" NCoef="0" IVar="0" Cut="2.7552501678466797e+01" cType="0" res="-9.9000000000000000e+01" rms="0.0000000000000000e+00" purity="4.7017318010330200e-01" nType="0">
        <Node pos="l" depth="1" NCoef="0" IVar="4" Cut="-1.1509430408477783e+00" cType="0" res="-9.9000000000000000e+01" rms="0.0000000000000000e+00" purity="4.9212238192558289e-01" nType="0">
          <Node pos="l" depth="2" NCoef="0" IVar="5" Cut="2.3666478693485260e-01" cType="1" res="-9.9000000000000000e+01" rms="0.0000000000000000e+00" purity="5.0194150209426880e-01" nType="0">
            <Node pos="l" depth="3" NCoef="0" IVar="-1" Cut="0.0000000000000000e+00" cType="1" res="-9.9000000000000000e+01" rms="0.0000000000000000e+00" purity="5.3102827072143555e-01" nType="1"/>
            <Node pos="r" depth="3" NCoef="0" IVar="-1" Cut="0.0000000000000000e+00" cType="1" res="-9.9000000000000000e+01" rms="0.0000000000000000e+00" purity="4.4759884476661682e-01" nType="-1"/>
          </Node>
          <Node pos="r" depth="2" NCoef="0" IVar="-1" Cut="0.0000000000000000e+00" cType="1" res="-9.9000000000000000e+01" rms="0.0000000000000000e+00" purity="3.1890973448753357e-01" nType="-1"/>
        </Node>
        <Node pos="r" depth="1" NCoef="0" IVar="4" Cut="6.9757986068725586e-01" cType="0" res="-9.9000000000000000e+01" rms="0.0000000000000000e+00" purity="3.1974744796752930e-01" nType="0">
          <Node pos="l" depth="2" NCoef="0" IVar="-1" Cut="0.0000000000000000e+00" cType="1" res="-9.9000000000000000e+01" rms="0.0000000000000000e+00" purity="5.4172664880752563e-01" nType="1"/>
          <Node pos="r" depth="2" NCoef="0" IVar="-1" Cut="4.1013201904296875e+02" cType="0" res="-9.9000000000000000e+01" rms="0.0000000000000000e+00" purity="2.2961807250976562e-01" nType="-1"/>
        </Node>
      </Node>
    </BinaryTree>
    <BinaryTree type="DecisionTree" boostWeight="8.1084093664161375e-02" itree="11">
      <Node pos="s" depth="0" NCoef="0" IVar="0" Cut="2.7552501678466797e+01" cType="0" res="-9.9000000000000000e+01" rms="0.0000000000000000e+00" purity="4.6489071846008301e-01" nType="0">
        <Node pos="l" depth="1" NCoef="0" IVar="4" Cut="-1.1509430408477783e+00" cType="0" res="-9.9000000000000000e+01" rms="0.0000000000000000e+00" purity="4.8427584767341614e-01" nType="0">
          <Node pos="l" depth="2" NCoef="0" IVar="1" Cut="-1.2636626958847046e+00" cType="0" res="-9.9000000000000000e+01" rms="0.0000000000000000e+00" purity="4.9182337522506714e-01" nType="0">
            <Node pos="l" depth="3" NCoef="0" IVar="-1" Cut="0.0000000000000000e+00" cType="1" res="-9.9000000000000000e+01" rms="0.0000000000000000e+00" purity="5.0320881605148315e-01" nType="1"/>
            <Node pos="r" depth="3" NCoef="0" IVar="-1" Cut="0.0000000000000000e+00" cType="1" res="-9.9000000000000000e+01" rms="0.0000000000000000e+00" purity="4.0258294343948364e-01" nType="-1"/>
          </Node>
          <Node pos="r" depth="2" NCoef="0" IVar="-1" Cut="0.0000000000000000e+00" cType="1" res="-9.9000000000000000e+01" rms="0.0000000000000000e+00" purity="3.4854352474212646e-01" nType="-1"/>
        </Node>
        <Node pos="r" depth="1" NCoef="0" IVar="4" Cut="6.9757986068725586e-01" cType="0" res="-9.9000000000000000e+01" rms="0.0000000000000000e+00" purity="3.2916074991226196e-01" nType="0">
          <Node pos="l" depth="2" NCoef="0" IVar="-1" Cut="0.0000000000000000e+00" cType="1" res="-9.9000000000000000e+01" rms="0.0000000000000000e+00" purity="5.0848823785781860e-01" nType="1"/>
          <Node pos="r" depth="2" NCoef="0" IVar="-1" Cut="4.1013201904296875e+02" cType="0" res="-9.9000000000000000e+01" rms="0.0000000000000000e+00" purity="2.5404959917068481e-01" nType="-1"/>
        </Node>
      </Node>
    </BinaryTree>
    <BinaryTree type="DecisionTree" boostWeight="1.3948686683058648e-01" itree="12">
      <Node pos="s" depth="0" NCoef="0" IVar="0" Cut="2.7552501678466797e+01" cType="0" res="-9.9000000000000000e+01" rms="0.0000000000000000e+00" purity="4.5371612906455994e-01" nType="0">
        <Node pos="l" depth="1" NCoef="0" IVar="0" Cut="1.0595034027099609e+02" cType="0" res="-9.9000000000000000e+01" rms="0.0000000000000000e+00" purity="4.7044298052787781e-01" nType="0">
          <Node pos="l" depth="2" NCoef="0" IVar="5" Cut="1.5540091693401337e-01" cType="0" res="-9.9000000000000000e+01" rms="0.0000000000000000e+00" purity="5.1255440711975098e-01" nType="0">
            <Node pos="l" depth="3" NCoef="0" IVar="-1" Cut="0.0000000000000000e+00" cType="1" res="-9.9000000000000000e+01" rms="0.0000000000000000e+00" purity="5.7725709676742554e-01" nType="1"/>
            <Node pos="r" depth="3" NCoef="0" IVar="-1" Cut="0.0000000000000000e+00" cType="1" res="-9.9000000000000000e+01" rms="0.0000000000000000e+00" purity="4.5161116123199463e-01" nType="-1"/>
          </Node>
          <Node pos="r" depth="2" NCoef="0" IVar="-1" Cut="3.7770287990570068e+00" cType="0" res="-9.9000000000000000e+01" rms="0.0000000000000000e+00" purity="4.4787639379501343e-01" nType="-1"/>
        </Node>
        <Node pos="r" depth="1" NCoef="0" IVar="7" Cut="2.5680957794189453e+01" cType="1" res="-9.9000000000000000e+01" rms="0.0000000000000000e+00" purity="3.3510923385620117e-01" nType="0">
          <Node pos="l" depth="2" NCoef="0" IVar="4" Cut="6.6378002520650625e-04" cType="0" res="-9.9000000000000000e+01" rms="0.0000000000000000e+00" purity="4.1805276274681091e-01" nType="0">
            <Node pos="l" depth="3" NCoef="0" IVar="-1" Cut="0.0000000000000000e+00" cType="1" res="-9.9000000000000000e+01" rms="0.0000000000000000e+00" purity="5.0100803375244141e-01" nType="1"/>
            <Node pos="r" depth="3" NCoef="0" IVar="-1" Cut="0.0000000000000000e+00" cType="1" res="-9.9000000000000000e+01" rms="0.0000000000000000e+00" purity="3.0212649703025818e-01" nType="-1"/>
          </Node>
          <Node pos="r" depth="2" NCoef="0" IVar="-1" Cut="1.5792936325073242e+01" cType="0" res="-9.9000000000000000e+01" rms="0.0000000000000000e+00" purity="1.8417519330978394e-01" nType="-1"/>
        </Node>
      </Node>
    </BinaryTree>
    <BinaryTree type="DecisionTree" boostWeight="1.0491900447611714e-01" itree="13">
      <Node pos="s" depth="0" NCoef="0" IVar="0" Cut="2.7552501678466797e+01" cType="0" res="-9.9000000000000000e+01" rms="0.0000000000000000e+00" purity="4.7472280263900757e-01" nType="0">
        <Node pos="l" depth="1" NCoef="0" IVar="6" Cut="4.2945246696472168e+00" cType="0" res="-9.9000000000000000e+01" rms="0.0000000000000000e+00" purity="4.9342343211174011e-01" nType="0">
          <Node pos="l" depth="2" NCoef="0" IVar="3" Cut="4.9076866149902344e+01" cType="1" res="-9.9000000000000000e+01" rms="0.0000000000000000e+00" purity="5.2959382534027100e-01" nType="0">
            <Node pos="l" depth="3" NCoef="0" IVar="-1" Cut="0.0000000000000000e+00" cType="1" res="-9.9000000000000000e+01" rms="0.0000000000000000e+00" purity="6.1609148979187012e-01" nType="1"/>
            <Node pos="r" depth="3" NCoef="0" IVar="-1" Cut="0.0000000000000000e+00" cType="1" res="-9.9000000000000000e+01" rms="0.0000000000000000e+00" purity="4.9495348334312439e-01" nType="-1"/>
          </Node>
          <Node pos="r" depth="2" NCoef="0" IVar="-1" Cut="1.1010487079620361e+00" cType="1" res="-9.9000000000000000e+01" rms="0.0000000000000000e+00" purity="4.6355313062667847e-01" nType="-1"/>
        </Node>
        <Node pos="r" depth="1" NCoef="0" IVar="2" Cut="6.3036358642578125e+02" cType="0" res="-9.9000000000000000e+01" rms="0.0000000000000000e+00" purity="3.4004145860671997e-01" nType="0">
          <Node pos="l" depth="2" NCoef="0" IVar="-1" Cut="0.0000000000000000e+00" cType="1" res="-9.9000000000000000e+01" rms="0.0000000000000000e+00" purity="5.0839143991470337e-01" nType="1"/>
          <Node pos="r" depth="2" NCoef="0" IVar="-1" Cut="2.6494422554969788e-01" cType="0" res="-9.9000000000000000e+01" rms="0.0000000000000000e+00" purity="2.6656833291053772e-01" nType="-1"/>
        </Node>
      </Node>
    </BinaryTree>
    <BinaryTree type="DecisionTree" boostWeight="1.5898048252122121e-01" itree="14">
      <Node pos="s" depth="0" NCoef="0" IVar="0" Cut="2.7552501678466797e+01" cType="0" res="-9.9000000000000000e+01" rms="0.0000000000000000e+00" purity="4.9299624562263489e-01" nType="0">
        <Node pos="l" depth="1" NCoef="0" IVar="1" Cut="9.0398943424224854e-01" cType="1" res="-9.9000000000000000e+01" rms="0.0000000000000000e+00" purity="5.1289981603622437e-01" nType="0">
          <Node pos="l" depth="2" NCoef="0" IVar="4" Cut="3.3909210562705994e-01" cType="1" res="-9.9000000000000000e+01" rms="0.0000000000000000e+00" purity="5.2693128585815430e-01" nType="0">
            <Node pos="l" depth="3" NCoef="0" IVar="-1" Cut="0.0000000000000000e+00" cType="1" res="-9.9000000000000000e+01" rms="0.0000000000000000e+00" purity="5.5911093950271606e-01" nType="1"/>
            <Node pos="r" depth="3" NCoef="0" IVar="-1" Cut="0.0000000000000000e+00" cType="1" res="-9.9000000000000000e+01" rms="0.0000000000000000e+00" purity="4.4895422458648682e-01" nType="-1"/>
          </Node>
          <Node pos="r" depth="2" NCoef="0" IVar="4" Cut="-3.0200406908988953e-01" cType="0" res="-9.9000000000000000e+01" rms="0.0000000000000000e+00" purity="4.4569218158721924e-01" nType="0">
            <Node pos="l" depth="3" NCoef="0" IVar="-1" Cut="0.0000000000000000e+00" cType="1" res="-9.9000000000000000e+01" rms="0.0000000000000000e+00" purity="5.4788255691528320e-01" nType="1"/>
            <Node pos="r" depth="3" NCoef="0" IVar="-1" Cut="0.0000000000000000e+00" cType="1" res="-9.9000000000000000e+01" rms="0.0000000000000000e+00" purity="1.3672289252281189e-01" nType="-1"/>
          </Node>
        </Node>
        <Node pos="r" depth="1" NCoef="0" IVar="-1" Cut="5.0929695129394531e+01" cType="1" res="-9.9000000000000000e+01" rms="0.0000000000000000e+00" purity="3.4768772125244141e-01" nType="-1"/>
      </Node>
    </BinaryTree>
    <BinaryTree type="DecisionTree" boostWeight="1.0623082586839304e-01" itree="15">
      <Node pos="s" depth="0" NCoef="0" IVar="0" Cut="2.7552501678466797e+01" cType="0" res="-9.9000000000000000e+01" rms="0.0000000000000000e+00" purity="4.8252797126770020e-01" nType="0">
        <Node pos="l" depth="1" NCoef="0" IVar="1" Cut="9.0398943424224854e-01" cType="1" res="-9.9000000000000000e+01" rms="0.0000000000000000e+00" purity="4.9576723575592041e-01" nType="0">
          <Node pos="l" depth="2" NCoef="0" IVar="1" Cut="-1.3481367826461792e+00" cType="0" res="-9.9000000000000000e+01" rms="0.0000000000000000e+00" purity="5.1053696870803833e-01" nType="0">
            <Node pos="l" depth="3" NCoef="0" IVar="-1" Cut="0.0000000000000000e+00" cType="1" res="-9.9000000000000000e+01" rms="0.0000000000000000e+00" purity="5.2217215299606323e-01" nType="1"/>
            <Node pos="r" depth="3" NCoef="0" IVar="-1" Cut="0.0000000000000000e+00" cType="1" res="-9.9000000000000000e+01" rms="0.0000000000000000e+00" purity="4.1143023967742920e-01" nType="-1"/>
          </Node>
          <Node pos="r" depth="2" NCoef="0" IVar="4" Cut="-1.0226169228553772e-01" cType="0" res="-9.9000000000000000e+01" rms="0.0000000000000000e+00" purity="4.2422777414321899e-01" nType="0">
            <Node pos="l" depth="3" NCoef="0" IVar="-1" Cut="0.0000000000000000e+00" cType="1" res="-9.9000000000000000e+01" rms="0.0000000000000000e+00" purity="5.3228241205215454e-01" nType="1"/>
            <Node pos="r" depth="3" NCoef="0" IVar="-1" Cut="0.0000000000000000e+00" cType="1" res="-9.9000000000000000e+01" rms="0.0000000000000000e+00" purity="2.1034286916255951e-01" nType="-1"/>
          </Node>
        </Node>
        <Node pos="r" depth="1" NCoef="0" IVar="-1" Cut="5.0929695129394531e+01" cType="1" res="-9.9000000000000000e+01" rms="0.0000000000000000e+00" purity="3.8455986976623535e-01" nType="-1"/>
      </Node>
    </BinaryTree>
    <BinaryTree type="DecisionTree" boostWeight="8.6211477984069723e-02" itree="16">
      <Node pos="s" depth="0" NCoef="0" IVar="6" Cut="6.1065144538879395e+00" cType="0" res="-9.9000000000000000e+01" rms="0.0000000000000000e+00" purity="4.6889412403106689e-01" nType="0">
        <Node pos="l" depth="1" NCoef="0" IVar="-1" Cut="0.0000000000000000e+00" cType="1" res="-9.9000000000000000e+01" rms="0.0000000000000000e+00" purity="6.1650329828262329e-01" nType="1"/>
        <Node pos="r" depth="1" NCoef="0" IVar="-1" Cut="9.0398943424224854e-01" cType="1" res="-9.9000000000000000e+01" rms="0.0000000000000000e+00" purity="4.6095442771911621e-01" nType="-1"/>
      </Node>
    </BinaryTree>
    <BinaryTree type="DecisionTree" boostWeight="9.8082932324233277e-02" itree="17">
      <Node pos="s" depth="0" NCoef="0" IVar="1" Cut="9.0398943424224854e-01" cType="1" res="-9.9000000000000000e+01" rms="0.0000000000000000e+00" purity="4.8819103837013245e-01" nType="0">
        <Node pos="l" depth="1" NCoef="0" IVar="1" Cut="-1.6296420097351074e+00" cType="0" res="-9.9000000000000000e+01" rms="0.0000000000000000e+00" purity="5.0284802913665771e-01" nType="0">
          <Node pos="l" depth="2" NCoef="0" IVar="6" Cut="5.5888028144836426e+00" cType="1" res="-9.9000000000000000e+01" rms="0.0000000000000000e+00" purity="5.1055431365966797e-01" nType="0">
            <Node pos="l" depth="3" NCoef="0" IVar="-1" Cut="0.0000000000000000e+00" cType="1" res="-9.9000000000000000e+01" rms="0.0000000000000000e+00" purity="5.2041453123092651e-01" nType="1"/>
            <Node pos="r" depth="3" NCoef="0" IVar="-1" Cut="0.0000000000000000e+00" cType="1" res="-9.9000000000000000e+01" rms="0.0000000000000000e+00" purity="4.0882062911987305e-01" nType="-1"/>
          </Node>
          <Node pos="r" depth="2" NCoef="0" IVar="-1" Cut="0.0000000000000000e+00" cType="1" res="-9.9000000000000000e+01" rms="0.0000000000000000e+00" purity="2.7883541584014893e-01" nType="-1"/>
        </Node>
        <Node pos="r" depth="1" NCoef="0" IVar="4" Cut="-5.0174641609191895e-01" cType="0" res="-9.9000000000000000e+01" rms="0.0000000000000000e+00" purity="4.1857358813285828e-01" nType="0">
          <Node pos="l" depth="2" NCoef="0" IVar="4" Cut="-4.8115411773324013e-03" cType="0" res="-9.9000000000000000e+01" rms="0.0000000000000000e+00" purity="4.8603147268295288e-01" nType="0">
            <Node pos="l" depth="3" NCoef="0" IVar="-1" Cut="0.0000000000000000e+00" cType="1" res="-9.9000000000000000e+01" rms="0.0000000000000000e+00" purity="5.3462660312652588e-01" nType="1"/>
            <Node pos="r" depth="3" NCoef="0" IVar="-1" Cut="0.0000000000000000e+00" cType="1" res="-9.9000000000000000e+01" rms="0.0000000000000000e+00" purity="3.4894150495529175e-01" nType="-1"/>
          </Node>
          <Node pos="r" depth="2" NCoef="0" IVar="-1" Cut="0.0000000000000000e+00" cType="1" res="-9.9000000000000000e+01" rms="0.0000000000000000e+00" purity="9.6999920904636383e-02" nType="-1"/>
        </Node>
      </Node>
    </BinaryTree>
    <BinaryTree type="DecisionTree" boostWeight="1.5934882968762609e-01" itree="18">
      <Node pos="s" depth="0" NCoef="0" IVar="2" Cut="6.0072808837890625e+02" cType="0" res="-9.9000000000000000e+01" rms="0.0000000000000000e+00" purity="4.7167965769767761e-01" nType="0">
        <Node pos="l" depth="1" NCoef="0" IVar="3" Cut="8.9126945495605469e+01" cType="1" res="-9.9000000000000000e+01" rms="0.0000000000000000e+00" purity="5.1196032762527466e-01" nType="0">
          <Node pos="l" depth="2" NCoef="0" IVar="-1" Cut="2.6762881875038147e-01" cType="0" res="-9.9000000000000000e+01" rms="0.0000000000000000e+00" purity="5.5871087312698364e-01" nType="1"/>
          <Node pos="r" depth="2" NCoef="0" IVar="-1" Cut="7.1951385498046875e+01" cType="1" res="-9.9000000000000000e+01" rms="0.0000000000000000e+00" purity="4.5967924594879150e-01" nType="-1"/>
        </Node>
        <Node pos="r" depth="1" NCoef="0" IVar="0" Cut="8.9679855346679688e+01" cType="0" res="-9.9000000000000000e+01" rms="0.0000000000000000e+00" purity="4.4564911723136902e-01" nType="0">
          <Node pos="l" depth="2" NCoef="0" IVar="3" Cut="1.1973744201660156e+02" cType="1" res="-9.9000000000000000e+01" rms="0.0000000000000000e+00" purity="5.1778399944305420e-01" nType="0">
            <Node pos="l" depth="3" NCoef="0" IVar="-1" Cut="0.0000000000000000e+00" cType="1" res="-9.9000000000000000e+01" rms="0.0000000000000000e+00" purity="5.9366405010223389e-01" nType="1"/>
            <Node pos="r" depth="3" NCoef="0" IVar="-1" Cut="0.0000000000000000e+00" cType="1" res="-9.9000000000000000e+01" rms="0.0000000000000000e+00" purity="3.9825388789176941e-01" nType="-1"/>
          </Node>
          <Node pos="r" depth="2" NCoef="0" IVar="-1" Cut="3.8212268352508545e+00" cType="0" res="-9.9000000000000000e+01" rms="0.0000000000000000e+00" purity="4.0170004963874817e-01" nType="-1"/>
        </Node>
      </Node>
    </BinaryTree>
    <BinaryTree type="DecisionTree" boostWeight="9.7210201377170652e-02" itree="19">
      <Node pos="s" depth="0" NCoef="0" IVar="7" Cut="4.7711498260498047e+01" cType="1" res="-9.9000000000000000e+01" rms="0.0000000000000000e+00" purity="4.8356515169143677e-01" nType="0">
        <Node pos="l" depth="1" NCoef="0" IVar="7" Cut="6.9341845512390137e+00" cType="1" res="-9.9000000000000000e+01" rms="0.0000000000000000e+00" purity="4.9625995755195618e-01" nType="0">
          <Node pos="l" depth="2" NCoef="0" IVar="-1" Cut="0.0000000000000000e+00" cType="1" res="-9.9000000000000000e+01" rms="0.0000000000000000e+00" purity="6.0926645994186401e-01" nType="1"/>
          <Node pos="r" depth="2" NCoef="0" IVar="-1" Cut="-8.7673622369766235e-01" cType="0" res="-9.9000000000000000e+01" rms="0.0000000000000000e+00" purity="4.8138588666915894e-01" nType="-1"/>
        </Node>
        <Node pos="r" depth="1" NCoef="0" IVar="0" Cut="5.5053184509277344e+01" cType="0" res="-9.9000000000000000e+01" rms="0.0000000000000000e+00" purity="4.1637375950813293e-01" nType="0">
          <Node pos="l" depth="2" NCoef="0" IVar="3" Cut="1.4654661560058594e+02" cType="1" res="-9.9000000000000000e+01" rms="0.0000000000000000e+00" purity="4.8723030090332031e-01" nType="0">
            <Node pos="l" depth="3" NCoef="0" IVar="-1" Cut="0.0000000000000000e+00" cType="1" res="-9.9000000000000000e+01" rms="0.0000000000000000e+00" purity="5.5368691682815552e-01" nType="1"/>
            <Node pos="r" depth="3" NCoef="0" IVar="-1" Cut="0.0000000000000000e+00" cType="1" res="-9.9000000000000000e+01" rms="0.0000000000000000e+00" purity="1.2878718972206116e-01" nType="-1"/>
          </Node>
          <Node pos="r" depth="2" NCoef="0" IVar="-1" Cut="4.5910101383924484e-02" cType="0" res="-9.9000000000000000e+01" rms="0.0000000000000000e+00" purity="2.1563228964805603e-01" nType="-1"/>
        </Node>
      </Node>
    </BinaryTree>
    <BinaryTree type="DecisionTree" boostWeight="1.5357832314793049e-01" itree="20">
      <Node pos="s" depth="0" NCoef="0" IVar="7" Cut="4.7711498260498047e+01" cType="1" res="-9.9000000000000000e+01" rms="0.0000000000000000e+00" purity="4.9827712774276733e-01" nType="0">
        <Node pos="l" depth="1" NCoef="0" IVar="1" Cut="5.0987088680267334e-01" cType="1" res="-9.9000000000000000e+01" rms="0.0000000000000000e+00" purity="5.1493674516677856e-01" nType="0">
          <Node pos="l" depth="2" NCoef="0" IVar="1" Cut="-8.3246409893035889e-01" cType="0" res="-9.9000000000000000e+01" rms="0.0000000000000000e+00" purity="5.3610956668853760e-01" nType="0">
            <Node pos="l" depth="3" NCoef="0" IVar="-1" Cut="0.0000000000000000e+00" cType="1" res="-9.9000000000000000e+01" rms="0.0000000000000000e+00" purity="5.7096099853515625e-01" nType="1"/>
            <Node pos="r" depth="3" NCoef="0" IVar="-1" Cut="0.0000000000000000e+00" cType="1" res="-9.9000000000000000e+01" rms="0.0000000000000000e+00" purity="4.6748808026313782e-01" nType="-1"/>
          </Node>
          <Node pos="r" depth="2" NCoef="0" IVar="4" Cut="-4.5721301436424255e-01" cType="0" res="-9.9000000000000000e+01" rms="0.0000000000000000e+00" purity="4.6495482325553894e-01" nType="0">
            <Node pos="l" depth="3" NCoef="0" IVar="-1" Cut="0.0000000000000000e+00" cType="1" res="-9.9000000000000000e+01" rms="0.0000000000000000e+00" purity="5.3172224760055542e-01" nType="1"/>
            <Node pos="r" depth="3" NCoef="0" IVar="-1" Cut="0.0000000000000000e+00" cType="1" res="-9.9000000000000000e+01" rms="0.0000000000000000e+00" purity="1.7848150432109833e-01" nType="-1"/>
          </Node>
        </Node>
        <Node pos="r" depth="1" NCoef="0" IVar="0" Cut="5.5053184509277344e+01" cType="0" res="-9.9000000000000000e+01" rms="0.0000000000000000e+00" purity="4.0904492139816284e-01" nType="0">
          <Node pos="l" depth="2" NCoef="0" IVar="3" Cut="1.4654661560058594e+02" cType="1" res="-9.9000000000000000e+01" rms="0.0000000000000000e+00" purity="4.7024428844451904e-01" nType="0">
            <Node pos="l" depth="3" NCoef="0" IVar="-1" Cut="0.0000000000000000e+00" cType="1" res="-9.9000000000000000e+01" rms="0.0000000000000000e+00" purity="5.2955764532089233e-01" nType="1"/>
            <Node pos="r" depth="3" NCoef="0" IVar="-1" Cut="0.0000000000000000e+00" cType="1" res="-9.9000000000000000e+01" rms="0.0000000000000000e+00" purity="1.4009335637092590e-01" nType="-1"/>
          </Node>
          <Node pos="r" depth="2" NCoef="0" IVar="-1" Cut="4.5910101383924484e-02" cType="0" res="-9.9000000000000000e+01" rms="0.0000000000000000e+00" purity="2.3252768814563751e-01" nType="-1"/>
        </Node>
      </Node>
    </BinaryTree>
    <BinaryTree type="DecisionTree" boostWeight="1.3101273767555838e-01" itree="21">
      <Node pos="s" depth="0" NCoef="0" IVar="7" Cut="4.7711498260498047e+01" cType="1" res="-9.9000000000000000e+01" rms="0.0000000000000000e+00" purity="4.8314031958580017e-01" nType="0">
        <Node pos="l" depth="1" NCoef="0" IVar="1" Cut="5.0987088680267334e-01" cType="1" res="-9.9000000000000000e+01" rms="0.0000000000000000e+00" purity="4.9905037879943848e-01" nType="0">
          <Node pos="l" depth="2" NCoef="0" IVar="4" Cut="-7.3259219527244568e-02" cType="1" res="-9.9000000000000000e+01" rms="0.0000000000000000e+00" purity="5.2381515502929688e-01" nType="0">
            <Node pos="l" depth="3" NCoef="0" IVar="-1" Cut="0.0000000000000000e+00" cType="1" res="-9.9000000000000000e+01" rms="0.0000000000000000e+00" purity="5.7300728559494019e-01" nType="1"/>
            <Node pos="r" depth="3" NCoef="0" IVar="-1" Cut="0.0000000000000000e+00" cType="1" res="-9.9000000000000000e+01" rms="0.0000000000000000e+00" purity="4.7571590542793274e-01" nType="-1"/>
          </Node>
          <Node pos="r" depth="2" NCoef="0" IVar="-1" Cut="-6.6252207756042480e-01" cType="0" res="-9.9000000000000000e+01" rms="0.0000000000000000e+00" purity="4.4033017754554749e-01" nType="-1"/>
        </Node>
        <Node pos="r" depth="1" NCoef="0" IVar="5" Cut="7.1209996938705444e-01" cType="0" res="-9.9000000000000000e+01" rms="0.0000000000000000e+00" purity="3.9710134267807007e-01" nType="0">
          <Node pos="l" depth="2" NCoef="0" IVar="-1" Cut="0.0000000000000000e+00" cType="1" res="-9.9000000000000000e+01" rms="0.0000000000000000e+00" purity="6.4577287435531616e-01" nType="1"/>
          <Node pos="r" depth="2" NCoef="0" IVar="-1" Cut="4.7584434509277344e+01" cType="0" res="-9.9000000000000000e+01" rms="0.0000000000000000e+00" purity="3.6344143748283386e-01" nType="-1"/>
        </Node>
      </Node>
    </BinaryTree>
    <BinaryTree type="DecisionTree" boostWeight="1.0420330958044866e-01" itree="22">
      <Node pos="s" depth="0" NCoef="0" IVar="7" Cut="4.7711498260498047e+01" cType="1" res="-9.9000000000000000e+01" rms="0.0000000000000000e+00" purity="4.9539411067962646e-01" nType="0">
        <Node pos="l" depth="1" NCoef="0" IVar="2" Cut="6.6260955810546875e+02" cType="0" res="-9.9000000000000000e+01" rms="0.0000000000000000e+00" purity="5.0907212495803833e-01" nType="0">
          <Node pos="l" depth="2" NCoef="0" IVar="-1" Cut="4.5848402976989746e+00" cType="1" res="-9.9000000000000000e+01" rms="0.0000000000000000e+00" purity="5.5541813373565674e-01" nType="1"/>
          <Node pos="r" depth="2" NCoef="0" IVar="6" Cut="3.8626675605773926e+00" cType="0" res="-9.9000000000000000e+01" rms="0.0000000000000000e+00" purity="4.8769524693489075e-01" nType="0">
            <Node pos="l" depth="3" NCoef="0" IVar="-1" Cut="0.0000000000000000e+00" cType="1" res="-9.9000000000000000e+01" rms="0.0000000000000000e+00" purity="5.2174955606460571e-01" nType="1"/>
            <Node pos="r" depth="3" NCoef="0" IVar="-1" Cut="0.0000000000000000e+00" cType="1" res="-9.9000000000000000e+01" rms="0.0000000000000000e+00" purity="4.3864151835441589e-01" nType="-1"/>
          </Node>
        </Node>
        <Node pos="r" depth="1" NCoef="0" IVar="0" Cut="5.5053184509277344e+01" cType="0" res="-9.9000000000000000e+01" rms="0.0000000000000000e+00" purity="4.2057889699935913e-01" nType="0">
          <Node pos="l" depth="2" NCoef="0" IVar="3" Cut="1.4654661560058594e+02" cType="1" res="-9.9000000000000000e+01" rms="0.0000000000000000e+00" purity="4.6587172150611877e-01" nType="0">
            <Node pos="l" depth="3" NCoef="0" IVar="-1" Cut="0.0000000000000000e+00" cType="1" res="-9.9000000000000000e+01" rms="0.0000000000000000e+00" purity="5.1443809270858765e-01" nType="1"/>
            <Node pos="r" depth="3" NCoef="0" IVar="-1" Cut="0.0000000000000000e+00" cType="1" res="-9.9000000000000000e+01" rms="0.0000000000000000e+00" purity="1.7230668663978577e-01" nType="-1"/>
          </Node>
          <Node pos="r" depth="2" NCoef="0" IVar="-1" Cut="4.5910101383924484e-02" cType="0" res="-9.9000000000000000e+01" rms="0.0000000000000000e+00" purity="2.8415739536285400e-01" nType="-1"/>
        </Node>
      </Node>
    </BinaryTree>
    <BinaryTree type="DecisionTree" boostWeight="1.7870132170860606e-01" itree="23">
      <Node pos="s" depth="0" NCoef="0" IVar="4" Cut="2.8954246640205383e-01" cType="0" res="-9.9000000000000000e+01" rms="0.0000000000000000e+00" purity="4.8448669910430908e-01" nType="0">
        <Node pos="l" depth="1" NCoef="0" IVar="1" Cut="-2.9468730092048645e-01" cType="0" res="-9.9000000000000000e+01" rms="0.0000000000000000e+00" purity="5.2597218751907349e-01" nType="0">
          <Node pos="l" depth="2" NCoef="0" IVar="-1" Cut="8.2164120674133301e-01" cType="1" res="-9.9000000000000000e+01" rms="0.0000000000000000e+00" purity="6.1052310466766357e-01" nType="1"/>
          <Node pos="r" depth="2" NCoef="0" IVar="4" Cut="5.7043945789337158e-01" cType="1" res="-9.9000000000000000e+01" rms="0.0000000000000000e+00" purity="3.6180958151817322e-01" nType="0">
            <Node pos="l" depth="3" NCoef="0" IVar="-1" Cut="0.0000000000000000e+00" cType="1" res="-9.9000000000000000e+01" rms="0.0000000000000000e+00" purity="5.0781041383743286e-01" nType="1"/>
            <Node pos="r" depth="3" NCoef="0" IVar="-1" Cut="0.0000000000000000e+00" cType="1" res="-9.9000000000000000e+01" rms="0.0000000000000000e+00" purity="2.4342331290245056e-01" nType="-1"/>
          </Node>
        </Node>
        <Node pos="r" depth="1" NCoef="0" IVar="1" Cut="3.1796970963478088e-01" cType="1" res="-9.9000000000000000e+01" rms="0.0000000000000000e+00" purity="4.5939087867736816e-01" nType="0">
          <Node pos="l" depth="2" NCoef="0" IVar="6" Cut="5.5888028144836426e+00" cType="1" res="-9.9000000000000000e+01" rms="0.0000000000000000e+00" purity="5.0391513109207153e-01" nType="0">
            <Node pos="l" depth="3" NCoef="0" IVar="-1" Cut="0.0000000000000000e+00" cType="1" res="-9.9000000000000000e+01" rms="0.0000000000000000e+00" purity="5.2210670709609985e-01" nType="1"/>
            <Node pos="r" depth="3" NCoef="0" IVar="-1" Cut="0.0000000000000000e+00" cType="1" res="-9.9000000000000000e+01" rms="0.0000000000000000e+00" purity="3.1418672204017639e-01" nType="-1"/>
          </Node>
          <Node pos="r" depth="2" NCoef="0" IVar="-1" Cut="-6.2148618698120117e-01" cType="0" res="-9.9000000000000000e+01" rms="0.0000000000000000e+00" purity="3.6622974276542664e-01" nType="-1"/>
        </Node>
      </Node>
    </BinaryTree>
    <BinaryTree type="DecisionTree" boostWeight="8.9573646560590400e-02" itree="24">
      <Node pos="s" depth="0" NCoef="0" IVar="4" Cut="-1.0206636190414429e+00" cType="0" res="-9.9000000000000000e+01" rms="0.0000000000000000e+00" purity="4.6695736050605774e-01" nType="0">
        <Node pos="l" depth="1" NCoef="0" IVar="7" Cut="4.7711498260498047e+01" cType="1" res="-9.9000000000000000e+01" rms="0.0000000000000000e+00" purity="4.7621080279350281e-01" nType="0">
          <Node pos="l" depth="2" NCoef="0" IVar="7" Cut="4.3176536560058594e+01" cType="0" res="-9.9000000000000000e+01" rms="0.0000000000000000e+00" purity="4.8882144689559937e-01" nType="0">
            <Node pos="l" depth="3" NCoef="0" IVar="-1" Cut="0.0000000000000000e+00" cType="1" res="-9.9000000000000000e+01" rms="0.0000000000000000e+00" purity="5.8840924501419067e-01" nType="1"/>
            <Node pos="r" depth="3" NCoef="0" IVar="-1" Cut="0.0000000000000000e+00" cType="1" res="-9.9000000000000000e+01" rms="0.0000000000000000e+00" purity="4.8142412304878235e-01" nType="-1"/>
          </Node>
          <Node pos="r" depth="2" NCoef="0" IVar="6" Cut="4.6328420639038086e+00" cType="0" res="-9.9000000000000000e+01" rms="0.0000000000000000e+00" purity="4.0929776430130005e-01" nType="0">
            <Node pos="l" depth="3" NCoef="0" IVar="-1" Cut="0.0000000000000000e+00" cType="1" res="-9.9000000000000000e+01" rms="0.0000000000000000e+00" purity="5.2160996198654175e-01" nType="1"/>
            <Node pos="r" depth="3" NCoef="0" IVar="-1" Cut="0.0000000000000000e+00" cType="1" res="-9.9000000000000000e+01" rms="0.0000000000000000e+00" purity="3.5387483239173889e-01" nType="-1"/>
          </Node>
        </Node>
        <Node pos="r" depth="1" NCoef="0" IVar="-1" Cut="2.7409765124320984e-01" cType="1" res="-9.9000000000000000e+01" rms="0.0000000000000000e+00" purity="3.5091185569763184e-01" nType="-1"/>
      </Node>
    </BinaryTree>
    <BinaryTree type="DecisionTree" boostWeight="1.0402359234214811e-01" itree="25">
      <Node pos="s" depth="0" NCoef="0" IVar="7" Cut="4.7711498260498047e+01" cType="1" res="-9.9000000000000000e+01" rms="0.0000000000000000e+00" purity="4.8469102382659912e-01" nType="0">
        <Node pos="l" depth="1" NCoef="0" IVar="2" Cut="6.6260955810546875e+02" cType="0" res="-9.9000000000000000e+01" rms="0.0000000000000000e+00" purity="4.9891969561576843e-01" nType="0">
          <Node pos="l" depth="2" NCoef="0" IVar="7" Cut="1.3877939224243164e+01" cType="1" res="-9.9000000000000000e+01" rms="0.0000000000000000e+00" purity="5.3797245025634766e-01" nType="0">
            <Node pos="l" depth="3" NCoef="0" IVar="-1" Cut="0.0000000000000000e+00" cType="1" res="-9.9000000000000000e+01" rms="0.0000000000000000e+00" purity="6.3156002759933472e-01" nType="1"/>
            <Node pos="r" depth="3" NCoef="0" IVar="-1" Cut="0.0000000000000000e+00" cType="1" res="-9.9000000000000000e+01" rms="0.0000000000000000e+00" purity="4.9430724978446960e-01" nType="-1"/>
          </Node>
          <Node pos="r" depth="2" NCoef="0" IVar="3" Cut="7.9298538208007812e+01" cType="0" res="-9.9000000000000000e+01" rms="0.0000000000000000e+00" purity="4.8086580634117126e-01" nType="0">
            <Node pos="l" depth="3" NCoef="0" IVar="-1" Cut="0.0000000000000000e+00" cType="1" res="-9.9000000000000000e+01" rms="0.0000000000000000e+00" purity="5.1921242475509644e-01" nType="1"/>
            <Node pos="r" depth="3" NCoef="0" IVar="-1" Cut="0.0000000000000000e+00" cType="1" res="-9.9000000000000000e+01" rms="0.0000000000000000e+00" purity="4.4877570867538452e-01" nType="-1"/>
          </Node>
        </Node>
        <Node pos="r" depth="1" NCoef="0" IVar="5" Cut="7.1209996938705444e-01" cType="0" res="-9.9000000000000000e+01" rms="0.0000000000000000e+00" purity="4.0681067109107971e-01" nType="0">
          <Node pos="l" depth="2" NCoef="0" IVar="-1" Cut="0.0000000000000000e+00" cType="1" res="-9.9000000000000000e+01" rms="0.0000000000000000e+00" purity="6.1037755012512207e-01" nType="1"/>
          <Node pos="r" depth="2" NCoef="0" IVar="-1" Cut="4.7584434509277344e+01" cType="0" res="-9.9000000000000000e+01" rms="0.0000000000000000e+00" purity="3.7962150573730469e-01" nType="-1"/>
        </Node>
      </Node>
    </BinaryTree>
    <BinaryTree type="DecisionTree" boostWeight="7.2801333832382506e-02" itree="26">
      <Node pos="s" depth="0" NCoef="0" IVar="4" Cut="-1.0206636190414429e+00" cType="0" res="-9.9000000000000000e+01" rms="0.0000000000000000e+00" purity="4.9157419800758362e-01" nType="0">
        <Node pos="l" depth="1" NCoef="0" IVar="7" Cut="4.7711498260498047e+01" cType="1" res="-9.9000000000000000e+01" rms="0.0000000000000000e+00" purity="5.0042504072189331e-01" nType="0">
          <Node pos="l" depth="2" NCoef="0" IVar="2" Cut="6.6260955810546875e+02" cType="0" res="-9.9000000000000000e+01" rms="0.0000000000000000e+00" purity="5.1252156496047974e-01" nType="0">
            <Node pos="l" depth="3" NCoef="0" IVar="-1" Cut="0.0000000000000000e+00" cType="1" res="-9.9000000000000000e+01" rms="0.0000000000000000e+00" purity="5.5470234155654907e-01" nType="1"/>
            <Node pos="r" depth="3" NCoef="0" IVar="-1" Cut="0.0000000000000000e+00" cType="1" res="-9.9000000000000000e+01" rms="0.0000000000000000e+00" purity="4.9208283424377441e-01" nType="-1"/>
          </Node>
          <Node pos="r" depth="2" NCoef="0" IVar="-1" Cut="1.7572309875488281e+02" cType="1" res="-9.9000000000000000e+01" rms="0.0000000000000000e+00" purity="4.3530109524726868e-01" nType="-1"/>
        </Node>
        <Node pos="r" depth="1" NCoef="0" IVar="-1" Cut="2.7409765124320984e-01" cType="1" res="-9.9000000000000000e+01" rms="0.0000000000000000e+00" purity="3.7952750921249390e-01" nType="-1"/>
      </Node>
    </BinaryTree>
    <BinaryTree type="DecisionTree" boostWeight="7.3763871811379500e-02" itree="27">
      <Node pos="s" depth="0" NCoef="0" IVar="4" Cut="-1.0206636190414429e+00" cType="0" res="-9.9000000000000000e+01" rms="0.0000000000000000e+00" purity="5.0048553943634033e-01" nType="0">
        <Node pos="l" depth="1" NCoef="0" IVar="7" Cut="4.7711498260498047e+01" cType="1" res="-9.9000000000000000e+01" rms="0.0000000000000000e+00" purity="5.0862056016921997e-01" nType="0">
          <Node pos="l" depth="2" NCoef="0" IVar="5" Cut="4.5243464410305023e-02" cType="1" res="-9.9000000000000000e+01" rms="0.0000000000000000e+00" purity="5.1886993646621704e-01" nType="0">
            <Node pos="l" depth="3" NCoef="0" IVar="-1" Cut="0.0000000000000000e+00" cType="1" res="-9.9000000000000000e+01" rms="0.0000000000000000e+00" purity="5.4327464103698730e-01" nType="1"/>
            <Node pos="r" depth="3" NCoef="0" IVar="-1" Cut="0.0000000000000000e+00" cType="1" res="-9.9000000000000000e+01" rms="0.0000000000000000e+00" purity="4.8893716931343079e-01" nType="-1"/>
          </Node>
          <Node pos="r" depth="2" NCoef="0" IVar="-1" Cut="1.7572309875488281e+02" cType="1" res="-9.9000000000000000e+01" rms="0.0000000000000000e+00" purity="4.5327341556549072e-01" nType="-1"/>
        </Node>
        <Node pos="r" depth="1" NCoef="0" IVar="-1" Cut="2.7409765124320984e-01" cType="1" res="-9.9000000000000000e+01" rms="0.0000000000000000e+00" purity="3.9681518077850342e-01" nType="-1"/>
      </Node>
    </BinaryTree>
    <BinaryTree type="DecisionTree" boostWeight="5.8578374169350793e-02" itree="28">
      <Node pos="s" depth="0" NCoef="0" IVar="6" Cut="6.1065144538879395e+00" cType="0" res="-9.9000000000000000e+01" rms="0.0000000000000000e+00" purity="5.0303834676742554e-01" nType="0">
        <Node pos="l" depth="1" NCoef="0" IVar="-1" Cut="0.0000000000000000e+00" cType="1" res="-9.9000000000000000e+01" rms="0.0000000000000000e+00" purity="6.1292970180511475e-01" nType="1"/>
        <Node pos="r" depth="1" NCoef="0" IVar="6" Cut="5.6599674224853516e+00" cType="1" res="-9.9000000000000000e+01" rms="0.0000000000000000e+00" purity="4.9718102812767029e-01" nType="0">
          <Node pos="l" depth="2" NCoef="0" IVar="1" Cut="1.1010487079620361e+00" cType="1" res="-9.9000000000000000e+01" rms="0.0000000000000000e+00" purity="5.0271749496459961e-01" nType="0">
            <Node pos="l" depth="3" NCoef="0" IVar="-1" Cut="0.0000000000000000e+00" cType="1" res="-9.9000000000000000e+01" rms="0.0000000000000000e+00" purity="5.1297682523727417e-01" nType="1"/>
            <Node pos="r" depth="3" NCoef="0" IVar="-1" Cut="0.0000000000000000e+00" cType="1" res="-9.9000000000000000e+01" rms="0.0000000000000000e+00" purity="4.2484295368194580e-01" nType="-1"/>
          </Node>
          <Node pos="r" depth="2" NCoef="0" IVar="-1" Cut="0.0000000000000000e+00" cType="1" res="-9.9000000000000000e+01" rms="0.0000000000000000e+00" purity="3.6986148357391357e-01" nType="-1"/>
        </Node>
      </Node>
    </BinaryTree>
    <BinaryTree type="DecisionTree" boostWeight="1.5037785838803247e-01" itree="29">
      <Node pos="s" depth="0" NCoef="0" IVar="4" Cut="-1.0206636190414429e+00" cType="0" res="-9.9000000000000000e+01" rms="0.0000000000000000e+00" purity="4.9264496564865112e-01" nType="0">
        <Node pos="l" depth="1" NCoef="0" IVar="1" Cut="-2.7836629748344421e-01" cType="0" res="-9.9000000000000000e+01" rms="0.0000000000000000e+00" purity="4.9972602725028992e-01" nType="0">
          <Node pos="l" depth="2" NCoef="0" IVar="4" Cut="2.1103446185588837e-01" cType="0" res="-9.9000000000000000e+01" rms="0.0000000000000000e+00" purity="5.2293670177459717e-01" nType="0">
            <Node pos="l" depth="3" NCoef="0" IVar="-1" Cut="0.0000000000000000e+00" cType="1" res="-9.9000000000000000e+01" rms="0.0000000000000000e+00" purity="5.8763664960861206e-01" nType="1"/>
            <Node pos="r" depth="3" NCoef="0" IVar="-1" Cut="0.0000000000000000e+00" cType="1" res="-9.9000000000000000e+01" rms="0.0000000000000000e+00" purity="4.5499557256698608e-01" nType="-1"/>
          </Node>
          <Node pos="r" depth="2" NCoef="0" IVar="4" Cut="7.2156511247158051e-02" cType="1" res="-9.9000000000000000e+01" rms="0.0000000000000000e+00" purity="4.6889337897300720e-01" nType="0">
            <Node pos="l" depth="3" NCoef="0" IVar="-1" Cut="0.0000000000000000e+00" cType="1" res="-9.9000000000000000e+01" rms="0.0000000000000000e+00" purity="5.4380166530609131e-01" nType="1"/>
            <Node pos="r" depth="3" NCoef="0" IVar="-1" Cut="0.0000000000000000e+00" cType="1" res="-9.9000000000000000e+01" rms="0.0000000000000000e+00" purity="3.7092280387878418e-01" nType="-1"/>
          </Node>
        </Node>
        <Node pos="r" depth="1" NCoef="0" IVar="-1" Cut="2.7409765124320984e-01" cType="1" res="-9.9000000000000000e+01" rms="0.0000000000000000e+00" purity="4.0224355459213257e-01" nType="-1"/>
      </Node>
    </BinaryTree>
    <BinaryTree type="DecisionTree" boostWeight="5.3664516589607705e-02" itree="30">
      <Node pos="s" depth="0" NCoef="0" IVar="5" Cut="8.0718702077865601e-01" cType="0" res="-9.9000000000000000e+01" rms="0.0000000000000000e+00" purity="4.9281135201454163e-01" nType="0">
        <Node pos="l" depth="1" NCoef="0" IVar="-1" Cut="0.0000000000000000e+00" cType="1" res="-9.9000000000000000e+01" rms="0.0000000000000000e+00" purity="6.2728911638259888e-01" nType="1"/>
        <Node pos="r" depth="1" NCoef="0" IVar="2" Cut="1.0517958984375000e+03" cType="0" res="-9.9000000000000000e+01" rms="0.0000000000000000e+00" purity="4.8806849122047424e-01" nType="0">
          <Node pos="l" depth="2" NCoef="0" IVar="-1" Cut="0.0000000000000000e+00" cType="1" res="-9.9000000000000000e+01" rms="0.0000000000000000e+00" purity="5.6339567899703979e-01" nType="1"/>
          <Node pos="r" depth="2" NCoef="0" IVar="-1" Cut="8.4293472290039062e+01" cType="1" res="-9.9000000000000000e+01" rms="0.0000000000000000e+00" purity="4.8067596554756165e-01" nType="-1"/>
        </Node>
      </Node>
    </BinaryTree>
    <BinaryTree type="DecisionTree" boostWeight="1.3164397760851090e-01" itree="31">
      <Node pos="s" depth="0" NCoef="0" IVar="1" Cut="-2.7836629748344421e-01" cType="0" res="-9.9000000000000000e+01" rms="0.0000000000000000e+00" purity="5.0299894809722900e-01" nType="0">
        <Node pos="l" depth="1" NCoef="0" IVar="4" Cut="-1.0713075101375580e-01" cType="0" res="-9.9000000000000000e+01" rms="0.0000000000000000e+00" purity="5.2361834049224854e-01" nType="0">
          <Node pos="l" depth="2" NCoef="0" IVar="3" Cut="8.8193641662597656e+01" cType="1" res="-9.9000000000000000e+01" rms="0.0000000000000000e+00" purity="5.5937612056732178e-01" nType="0">
            <Node pos="l" depth="3" NCoef="0" IVar="-1" Cut="0.0000000000000000e+00" cType="1" res="-9.9000000000000000e+01" rms="0.0000000000000000e+00" purity="5.9886091947555542e-01" nType="1"/>
            <Node pos="r" depth="3" NCoef="0" IVar="-1" Cut="0.0000000000000000e+00" cType="1" res="-9.9000000000000000e+01" rms="0.0000000000000000e+00" purity="4.9537456035614014e-01" nType="-1"/>
          </Node>
          <Node pos="r" depth="2" NCoef="0" IVar="3" Cut="9.1697296142578125e+01" cType="0" res="-9.9000000000000000e+01" rms="0.0000000000000000e+00" purity="4.6283230185508728e-01" nType="0">
            <Node pos="l" depth="3" NCoef="0" IVar="-1" Cut="0.0000000000000000e+00" cType="1" res="-9.9000000000000000e+01" rms="0.0000000000000000e+00" purity="5.8456689119338989e-01" nType="1"/>
            <Node pos="r" depth="3" NCoef="0" IVar="-1" Cut="0.0000000000000000e+00" cType="1" res="-9.9000000000000000e+01" rms="0.0000000000000000e+00" purity="3.6142683029174805e-01" nType="-1"/>
          </Node>
        </Node>
        <Node pos="r" depth="1" NCoef="0" IVar="4" Cut="9.4464552402496338e-01" cType="1" res="-9.9000000000000000e+01" rms="0.0000000000000000e+00" purity="4.7636970877647400e-01" nType="0">
          <Node pos="l" depth="2" NCoef="0" IVar="7" Cut="4.5657669067382812e+01" cType="1" res="-9.9000000000000000e+01" rms="0.0000000000000000e+00" purity="4.9266901612281799e-01" nType="0">
            <Node pos="l" depth="3" NCoef="0" IVar="-1" Cut="0.0000000000000000e+00" cType="1" res="-9.9000000000000000e+01" rms="0.0000000000000000e+00" purity="5.1337724924087524e-01" nType="1"/>
            <Node pos="r" depth="3" NCoef="0" IVar="-1" Cut="0.0000000000000000e+00" cType="1" res="-9.9000000000000000e+01" rms="0.0000000000000000e+00" purity="3.9320760965347290e-01" nType="-1"/>
          </Node>
          <Node pos="r" depth="2" NCoef="0" IVar="-1" Cut="0.0000000000000000e+00" cType="1" res="-9.9000000000000000e+01" rms="0.0000000000000000e+00" purity="2.5299325585365295e-01" nType="-1"/>
        </Node>
      </Node>
    </BinaryTree>
    <BinaryTree type="DecisionTree" boostWeight="1.4425575860905138e-01" itree="32">
      <Node pos="s" depth="0" NCoef="0" IVar="1" Cut="-2.7836629748344421e-01" cType="0" res="-9.9000000000000000e+01" rms="0.0000000000000000e+00" purity="4.9301677942276001e-01" nType="0">
        <Node pos="l" depth="1" NCoef="0" IVar="4" Cut="-1.0713075101375580e-01" cType="0" res="-9.9000000000000000e+01" rms="0.0000000000000000e+00" purity="5.2004086971282959e-01" nType="0">
          <Node pos="l" depth="2" NCoef="0" IVar="-1" Cut="1.1079041957855225e+00" cType="0" res="-9.9000000000000000e+01" rms="0.0000000000000000e+00" purity="5.5202060937881470e-01" nType="1"/>
          <Node pos="r" depth="2" NCoef="0" IVar="3" Cut="9.1697296142578125e+01" cType="0" res="-9.9000000000000000e+01" rms="0.0000000000000000e+00" purity="4.6530628204345703e-01" nType="0">
            <Node pos="l" depth="3" NCoef="0" IVar="-1" Cut="0.0000000000000000e+00" cType="1" res="-9.9000000000000000e+01" rms="0.0000000000000000e+00" purity="5.5228459835052490e-01" nType="1"/>
            <Node pos="r" depth="3" NCoef="0" IVar="-1" Cut="0.0000000000000000e+00" cType="1" res="-9.9000000000000000e+01" rms="0.0000000000000000e+00" purity="3.9232900738716125e-01" nType="-1"/>
          </Node>
        </Node>
        <Node pos="r" depth="1" NCoef="0" IVar="4" Cut="-3.6556056141853333e-01" cType="1" res="-9.9000000000000000e+01" rms="0.0000000000000000e+00" purity="4.5828941464424133e-01" nType="0">
          <Node pos="l" depth="2" NCoef="0" IVar="6" Cut="3.8839430809020996e+00" cType="0" res="-9.9000000000000000e+01" rms="0.0000000000000000e+00" purity="5.2239358425140381e-01" nType="0">
            <Node pos="l" depth="3" NCoef="0" IVar="-1" Cut="0.0000000000000000e+00" cType="1" res="-9.9000000000000000e+01" rms="0.0000000000000000e+00" purity="5.8337461948394775e-01" nType="1"/>
            <Node pos="r" depth="3" NCoef="0" IVar="-1" Cut="0.0000000000000000e+00" cType="1" res="-9.9000000000000000e+01" rms="0.0000000000000000e+00" purity="4.0492796897888184e-01" nType="-1"/>
          </Node>
          <Node pos="r" depth="2" NCoef="0" IVar="-1" Cut="5.4136993408203125e+02" cType="0" res="-9.9000000000000000e+01" rms="0.0000000000000000e+00" purity="4.2047762870788574e-01" nType="-1"/>
        </Node>
      </Node>
    </BinaryTree>
    <BinaryTree type="DecisionTree" boostWeight="7.1884509505846267e-02" itree="33">
      <Node pos="s" depth="0" NCoef="0" IVar="5" Cut="8.0718702077865601e-01" cType="0" res="-9.9000000000000000e+01" rms="0.0000000000000000e+00" purity="4.8883524537086487e-01" nType="0">
        <Node pos="l" depth="1" NCoef="0" IVar="-1" Cut="0.0000000000000000e+00" cType="1" res="-9.9000000000000000e+01" rms="0.0000000000000000e+00" purity="6.0996025800704956e-01" nType="1"/>
        <Node pos="r" depth="1" NCoef="0" IVar="0" Cut="1.2099919891357422e+02" cType="0" res="-9.9000000000000000e+01" rms="0.0000000000000000e+00" purity="4.8460802435874939e-01" nType="0">
          <Node pos="l" depth="2" NCoef="0" IVar="4" Cut="-1.6527496278285980e-01" cType="0" res="-9.9000000000000000e+01" rms="0.0000000000000000e+00" purity="5.1863235235214233e-01" nType="0">
            <Node pos="l" depth="3" NCoef="0" IVar="-1" Cut="0.0000000000000000e+00" cType="1" res="-9.9000000000000000e+01" rms="0.0000000000000000e+00" purity="5.5845612287521362e-01" nType="1"/>
            <Node pos="r" depth="3" NCoef="0" IVar="-1" Cut="0.0000000000000000e+00" cType="1" res="-9.9000000000000000e+01" rms="0.0000000000000000e+00" purity="4.5567011833190918e-01" nType="-1"/>
          </Node>
          <Node pos="r" depth="2" NCoef="0" IVar="-1" Cut="2.0495386421680450e-01" cType="1" res="-9.9000000000000000e+01" rms="0.0000000000000000e+00" purity="4.7326716780662537e-01" nType="-1"/>
        </Node>
      </Node>
    </BinaryTree>
    <BinaryTree type="DecisionTree" boostWeight="4.5441790701421098e-02" itree="34">
      <Node pos="s" depth="0" NCoef="0" IVar="6" Cut="6.1065144538879395e+00" cType="0" res="-9.9000000000000000e+01" rms="0.0000000000000000e+00" purity="5.0027173757553101e-01" nType="0">
        <Node pos="l" depth="1" NCoef="0" IVar="-1" Cut="0.0000000000000000e+00" cType="1" res="-9.9000000000000000e+01" rms="0.0000000000000000e+00" purity="5.8961963653564453e-01" nType="1"/>
        <Node pos="r" depth="1" NCoef="0" IVar="1" Cut="1.1010487079620361e+00" cType="1" res="-9.9000000000000000e+01" rms="0.0000000000000000e+00" purity="4.9555370211601257e-01" nType="0">
          <Node pos="l" depth="2" NCoef="0" IVar="1" Cut="-1.6015806198120117e+00" cType="0" res="-9.9000000000000000e+01" rms="0.0000000000000000e+00" purity="5.0394654273986816e-01" nType="0">
            <Node pos="l" depth="3" NCoef="0" IVar="-1" Cut="0.0000000000000000e+00" cType="1" res="-9.9000000000000000e+01" rms="0.0000000000000000e+00" purity="5.0867670774459839e-01" nType="1"/>
            <Node pos="r" depth="3" NCoef="0" IVar="-1" Cut="0.0000000000000000e+00" cType="1" res="-9.9000000000000000e+01" rms="0.0000000000000000e+00" purity="3.7802678346633911e-01" nType="-1"/>
          </Node>
          <Node pos="r" depth="2" NCoef="0" IVar="-1" Cut="-5.0174641609191895e-01" cType="0" res="-9.9000000000000000e+01" rms="0.0000000000000000e+00" purity="4.3374454975128174e-01" nType="-1"/>
        </Node>
      </Node>
    </BinaryTree>
    <BinaryTree type="DecisionTree" boostWeight="5.0049203651427773e-02" itree="35">
      <Node pos="s" depth="0" NCoef="0" IVar="6" Cut="6.1065144538879395e+00" cType="0" res="-9.9000000000000000e+01" rms="0.0000000000000000e+00" purity="4.9217265844345093e-01" nType="0">
        <Node pos="l" depth="1" NCoef="0" IVar="-1" Cut="0.0000000000000000e+00" cType="1" res="-9.9000000000000000e+01" rms="0.0000000000000000e+00" purity="5.7858109474182129e-01" nType="1"/>
        <Node pos="r" depth="1" NCoef="0" IVar="6" Cut="5.6599674224853516e+00" cType="1" res="-9.9000000000000000e+01" rms="0.0000000000000000e+00" purity="4.8762443661689758e-01" nType="0">
          <Node pos="l" depth="2" NCoef="0" IVar="6" Cut="5.4062814712524414e+00" cType="0" res="-9.9000000000000000e+01" rms="0.0000000000000000e+00" purity="4.9193894863128662e-01" nType="0">
            <Node pos="l" depth="3" NCoef="0" IVar="-1" Cut="0.0000000000000000e+00" cType="1" res="-9.9000000000000000e+01" rms="0.0000000000000000e+00" purity="5.8019489049911499e-01" nType="1"/>
            <Node pos="r" depth="3" NCoef="0" IVar="-1" Cut="0.0000000000000000e+00" cType="1" res="-9.9000000000000000e+01" rms="0.0000000000000000e+00" purity="4.8592880368232727e-01" nType="-1"/>
          </Node>
          <Node pos="r" depth="2" NCoef="0" IVar="-1" Cut="0.0000000000000000e+00" cType="1" res="-9.9000000000000000e+01" rms="0.0000000000000000e+00" purity="3.8637560606002808e-01" nType="-1"/>
        </Node>
      </Node>
    </BinaryTree>
    <BinaryTree type="DecisionTree" boostWeight="4.7519837449884618e-02" itree="36">
      <Node pos="s" depth="0" NCoef="0" IVar="5" Cut="7.1209996938705444e-01" cType="0" res="-9.9000000000000000e+01" rms="0.0000000000000000e+00" purity="5.0198024511337280e-01" nType="0">
        <Node pos="l" depth="1" NCoef="0" IVar="1" Cut="-1.4825841784477234e-01" cType="0" res="-9.9000000000000000e+01" rms="0.0000000000000000e+00" purity="5.6550973653793335e-01" nType="0">
          <Node pos="l" depth="2" NCoef="0" IVar="-1" Cut="0.0000000000000000e+00" cType="1" res="-9.9000000000000000e+01" rms="0.0000000000000000e+00" purity="6.2011247873306274e-01" nType="1"/>
          <Node pos="r" depth="2" NCoef="0" IVar="-1" Cut="0.0000000000000000e+00" cType="1" res="-9.9000000000000000e+01" rms="0.0000000000000000e+00" purity="4.9354007840156555e-01" nType="-1"/>
        </Node>
        <Node pos="r" depth="1" NCoef="0" IVar="2" Cut="4.5037213134765625e+02" cType="0" res="-9.9000000000000000e+01" rms="0.0000000000000000e+00" purity="4.9660405516624451e-01" nType="0">
          <Node pos="l" depth="2" NCoef="0" IVar="7" Cut="9.5499153137207031e+01" cType="1" res="-9.9000000000000000e+01" rms="0.0000000000000000e+00" purity="5.0911945104598999e-01" nType="0">
            <Node pos="l" depth="3" NCoef="0" IVar="-1" Cut="0.0000000000000000e+00" cType="1" res="-9.9000000000000000e+01" rms="0.0000000000000000e+00" purity="5.1316076517105103e-01" nType="1"/>
            <Node pos="r" depth="3" NCoef="0" IVar="-1" Cut="0.0000000000000000e+00" cType="1" res="-9.9000000000000000e+01" rms="0.0000000000000000e+00" purity="1.9172036647796631e-01" nType="-1"/>
          </Node>
          <Node pos="r" depth="2" NCoef="0" IVar="-1" Cut="-1.2608189582824707e+00" cType="0" res="-9.9000000000000000e+01" rms="0.0000000000000000e+00" purity="4.7541412711143494e-01" nType="-1"/>
        </Node>
      </Node>
    </BinaryTree>
    <BinaryTree type="DecisionTree" boostWeight="6.3130797643271383e-02" itree="37">
      <Node pos="s" depth="0" NCoef="0" IVar="5" Cut="7.1209996938705444e-01" cType="0" res="-9.9000000000000000e+01" rms="0.0000000000000000e+00" purity="4.9920693039894104e-01" nType="0">
        <Node pos="l" depth="1" NCoef="0" IVar="5" Cut="7.9398220777511597e-01" cType="0" res="-9.9000000000000000e+01" rms="0.0000000000000000e+00" purity="5.6409645080566406e-01" nType="0">
          <Node pos="l" depth="2" NCoef="0" IVar="-1" Cut="0.0000000000000000e+00" cType="1" res="-9.9000000000000000e+01" rms="0.0000000000000000e+00" purity="6.1582463979721069e-01" nType="1"/>
          <Node pos="r" depth="2" NCoef="0" IVar="-1" Cut="0.0000000000000000e+00" cType="1" res="-9.9000000000000000e+01" rms="0.0000000000000000e+00" purity="4.9206233024597168e-01" nType="-1"/>
        </Node>
        <Node pos="r" depth="1" NCoef="0" IVar="3" Cut="2.0489959716796875e+02" cType="1" res="-9.9000000000000000e+01" rms="0.0000000000000000e+00" purity="4.9372905492782593e-01" nType="0">
          <Node pos="l" depth="2" NCoef="0" IVar="0" Cut="1.3217308044433594e+02" cType="0" res="-9.9000000000000000e+01" rms="0.0000000000000000e+00" purity="4.9694162607192993e-01" nType="0">
            <Node pos="l" depth="3" NCoef="0" IVar="-1" Cut="0.0000000000000000e+00" cType="1" res="-9.9000000000000000e+01" rms="0.0000000000000000e+00" purity="5.6871885061264038e-01" nType="1"/>
            <Node pos="r" depth="3" NCoef="0" IVar="-1" Cut="0.0000000000000000e+00" cType="1" res="-9.9000000000000000e+01" rms="0.0000000000000000e+00" purity="4.8252090811729431e-01" nType="-1"/>
          </Node>
          <Node pos="r" depth="2" NCoef="0" IVar="-1" Cut="0.0000000000000000e+00" cType="1" res="-9.9000000000000000e+01" rms="0.0000000000000000e+00" purity="4.2661723494529724e-01" nType="-1"/>
        </Node>
      </Node>
    </BinaryTree>
    <BinaryTree type="DecisionTree" boostWeight="7.2982002559930190e-02" itree="38">
      <Node pos="s" depth="0" NCoef="0" IVar="3" Cut="1.1737013244628906e+02" cType="1" res="-9.9000000000000000e+01" rms="0.0000000000000000e+00" purity="5.0892668962478638e-01" nType="0">
        <Node pos="l" depth="1" NCoef="0" IVar="5" Cut="7.1209996938705444e-01" cType="0" res="-9.9000000000000000e+01" rms="0.0000000000000000e+00" purity="5.1930922269821167e-01" nType="0">
          <Node pos="l" depth="2" NCoef="0" IVar="-1" Cut="0.0000000000000000e+00" cType="1" res="-9.9000000000000000e+01" rms="0.0000000000000000e+00" purity="6.3206976652145386e-01" nType="1"/>
          <Node pos="r" depth="2" NCoef="0" IVar="7" Cut="8.2218482971191406e+01" cType="1" res="-9.9000000000000000e+01" rms="0.0000000000000000e+00" purity="5.0940787792205811e-01" nType="0">
            <Node pos="l" depth="3" NCoef="0" IVar="-1" Cut="0.0000000000000000e+00" cType="1" res="-9.9000000000000000e+01" rms="0.0000000000000000e+00" purity="5.1453638076782227e-01" nType="1"/>
            <Node pos="r" depth="3" NCoef="0" IVar="-1" Cut="0.0000000000000000e+00" cType="1" res="-9.9000000000000000e+01" rms="0.0000000000000000e+00" purity="1.7518846690654755e-01" nType="-1"/>
          </Node>
        </Node>
        <Node pos="r" depth="1" NCoef="0" IVar="5" Cut="-3.3330112695693970e-01" cType="1" res="-9.9000000000000000e+01" rms="0.0000000000000000e+00" purity="4.7564199566841125e-01" nType="0">
          <Node pos="l" depth="2" NCoef="0" IVar="-1" Cut="0.0000000000000000e+00" cType="1" res="-9.9000000000000000e+01" rms="0.0000000000000000e+00" purity="5.6383144855499268e-01" nType="1"/>
          <Node pos="r" depth="2" NCoef="0" IVar="-1" Cut="1.1101802438497543e-01" cType="0" res="-9.9000000000000000e+01" rms="0.0000000000000000e+00" purity="4.3825238943099976e-01" nType="-1"/>
        </Node>
      </Node>
    </BinaryTree>
    <BinaryTree type="DecisionTree" boostWeight="4.2012426230091937e-02" itree="39">
      <Node pos="s" depth="0" NCoef="0" IVar="6" Cut="5.5888028144836426e+00" cType="1" res="-9.9000000000000000e+01" rms="0.0000000000000000e+00" purity="4.9715831875801086e-01" nType="0">
        <Node pos="l" depth="1" NCoef="0" IVar="6" Cut="5.3415946960449219e+00" cType="0" res="-9.9000000000000000e+01" rms="0.0000000000000000e+00" purity="5.0255280733108521e-01" nType="0">
          <Node pos="l" depth="2" NCoef="0" IVar="-1" Cut="0.0000000000000000e+00" cType="1" res="-9.9000000000000000e+01" rms="0.0000000000000000e+00" purity="6.2310576438903809e-01" nType="1"/>
          <Node pos="r" depth="2" NCoef="0" IVar="-1" Cut="3.1117331981658936e+00" cType="0" res="-9.9000000000000000e+01" rms="0.0000000000000000e+00" purity="4.9470105767250061e-01" nType="-1"/>
        </Node>
        <Node pos="r" depth="1" NCoef="0" IVar="6" Cut="5.9963636398315430e+00" cType="0" res="-9.9000000000000000e+01" rms="0.0000000000000000e+00" purity="4.4903168082237244e-01" nType="0">
          <Node pos="l" depth="2" NCoef="0" IVar="-1" Cut="0.0000000000000000e+00" cType="1" res="-9.9000000000000000e+01" rms="0.0000000000000000e+00" purity="5.3712779283523560e-01" nType="1"/>
          <Node pos="r" depth="2" NCoef="0" IVar="-1" Cut="0.0000000000000000e+00" cType="1" res="-9.9000000000000000e+01" rms="0.0000000000000000e+00" purity="3.0740562081336975e-01" nType="-1"/>
        </Node>
      </Node>
    </BinaryTree>
    <BinaryTree type="DecisionTree" boostWeight="5.6543268436187726e-02" itree="40">
      <Node pos="s" depth="0" NCoef="0" IVar="6" Cut="5.5888028144836426e+00" cType="1" res="-9.9000000000000000e+01" rms="0.0000000000000000e+00" purity="5.0520449876785278e-01" nType="0">
        <Node pos="l" depth="1" NCoef="0" IVar="6" Cut="5.3415946960449219e+00" cType="0" res="-9.9000000000000000e+01" rms="0.0000000000000000e+00" purity="5.1177626848220825e-01" nType="0">
          <Node pos="l" depth="2" NCoef="0" IVar="-1" Cut="0.0000000000000000e+00" cType="1" res="-9.9000000000000000e+01" rms="0.0000000000000000e+00" purity="6.1318951845169067e-01" nType="1"/>
          <Node pos="r" depth="2" NCoef="0" IVar="6" Cut="3.1117331981658936e+00" cType="0" res="-9.9000000000000000e+01" rms="0.0000000000000000e+00" purity="5.0520378351211548e-01" nType="0">
            <Node pos="l" depth="3" NCoef="0" IVar="-1" Cut="0.0000000000000000e+00" cType="1" res="-9.9000000000000000e+01" rms="0.0000000000000000e+00" purity="5.0994980335235596e-01" nType="1"/>
            <Node pos="r" depth="3" NCoef="0" IVar="-1" Cut="0.0000000000000000e+00" cType="1" res="-9.9000000000000000e+01" rms="0.0000000000000000e+00" purity="3.7130337953567505e-01" nType="-1"/>
          </Node>
        </Node>
        <Node pos="r" depth="1" NCoef="0" IVar="1" Cut="7.5620166957378387e-02" cType="0" res="-9.9000000000000000e+01" rms="0.0000000000000000e+00" purity="4.4636663794517517e-01" nType="0">
          <Node pos="l" depth="2" NCoef="0" IVar="-1" Cut="0.0000000000000000e+00" cType="1" res="-9.9000000000000000e+01" rms="0.0000000000000000e+00" purity="5.4458665847778320e-01" nType="1"/>
          <Node pos="r" depth="2" NCoef="0" IVar="-1" Cut="0.0000000000000000e+00" cType="1" res="-9.9000000000000000e+01" rms="0.0000000000000000e+00" purity="3.3216834068298340e-01" nType="-1"/>
        </Node>
      </Node>
    </BinaryTree>
    <BinaryTree type="DecisionTree" boostWeight="4.1463252916986958e-02" itree="41">
      <Node pos="s" depth="0" NCoef="0" IVar="6" Cut="5.5888028144836426e+00" cType="1" res="-9.9000000000000000e+01" rms="0.0000000000000000e+00" purity="4.9319195747375488e-01" nType="0">
        <Node pos="l" depth="1" NCoef="0" IVar="6" Cut="5.3415946960449219e+00" cType="0" res="-9.9000000000000000e+01" rms="0.0000000000000000e+00" purity="4.9855116009712219e-01" nType="0">
          <Node pos="l" depth="2" NCoef="0" IVar="-1" Cut="0.0000000000000000e+00" cType="1" res="-9.9000000000000000e+01" rms="0.0000000000000000e+00" purity="5.9969538450241089e-01" nType="1"/>
          <Node pos="r" depth="2" NCoef="0" IVar="-1" Cut="3.1117331981658936e+00" cType="0" res="-9.9000000000000000e+01" rms="0.0000000000000000e+00" purity="4.9203294515609741e-01" nType="-1"/>
        </Node>
        <Node pos="r" depth="1" NCoef="0" IVar="6" Cut="5.9963636398315430e+00" cType="0" res="-9.9000000000000000e+01" rms="0.0000000000000000e+00" purity="4.4498777389526367e-01" nType="0">
          <Node pos="l" depth="2" NCoef="0" IVar="-1" Cut="0.0000000000000000e+00" cType="1" res="-9.9000000000000000e+01" rms="0.0000000000000000e+00" purity="5.2466237545013428e-01" nType="1"/>
          <Node pos="r" depth="2" NCoef="0" IVar="-1" Cut="0.0000000000000000e+00" cType="1" res="-9.9000000000000000e+01" rms="0.0000000000000000e+00" purity="3.1632959842681885e-01" nType="-1"/>
        </Node>
      </Node>
    </BinaryTree>
    <BinaryTree type="DecisionTree" boostWeight="3.9313332352589908e-02" itree="42">
      <Node pos="s" depth="0" NCoef="0" IVar="6" Cut="5.5888028144836426e+00" cType="1" res="-9.9000000000000000e+01" rms="0.0000000000000000e+00" purity="5.0114703178405762e-01" nType="0">
        <Node pos="l" depth="1" NCoef="0" IVar="6" Cut="5.3415946960449219e+00" cType="0" res="-9.9000000000000000e+01" rms="0.0000000000000000e+00" purity="5.0766479969024658e-01" nType="0">
          <Node pos="l" depth="2" NCoef="0" IVar="-1" Cut="0.0000000000000000e+00" cType="1" res="-9.9000000000000000e+01" rms="0.0000000000000000e+00" purity="5.8970177173614502e-01" nType="1"/>
          <Node pos="r" depth="2" NCoef="0" IVar="6" Cut="3.1117331981658936e+00" cType="0" res="-9.9000000000000000e+01" rms="0.0000000000000000e+00" purity="5.0239807367324829e-01" nType="0">
            <Node pos="l" depth="3" NCoef="0" IVar="-1" Cut="0.0000000000000000e+00" cType="1" res="-9.9000000000000000e+01" rms="0.0000000000000000e+00" purity="5.0618082284927368e-01" nType="1"/>
            <Node pos="r" depth="3" NCoef="0" IVar="-1" Cut="0.0000000000000000e+00" cType="1" res="-9.9000000000000000e+01" rms="0.0000000000000000e+00" purity="3.9445525407791138e-01" nType="-1"/>
          </Node>
        </Node>
        <Node pos="r" depth="1" NCoef="0" IVar="7" Cut="3.0582172393798828e+01" cType="1" res="-9.9000000000000000e+01" rms="0.0000000000000000e+00" purity="4.4234657287597656e-01" nType="0">
          <Node pos="l" depth="2" NCoef="0" IVar="-1" Cut="0.0000000000000000e+00" cType="1" res="-9.9000000000000000e+01" rms="0.0000000000000000e+00" purity="5.0682222843170166e-01" nType="1"/>
          <Node pos="r" depth="2" NCoef="0" IVar="-1" Cut="0.0000000000000000e+00" cType="1" res="-9.9000000000000000e+01" rms="0.0000000000000000e+00" purity="2.9456463456153870e-01" nType="-1"/>
        </Node>
      </Node>
    </BinaryTree>
    <BinaryTree type="DecisionTree" boostWeight="3.8707073123344253e-02" itree="43">
      <Node pos="s" depth="0" NCoef="0" IVar="6" Cut="5.5888028144836426e+00" cType="1" res="-9.9000000000000000e+01" rms="0.0000000000000000e+00" purity="4.9247279763221741e-01" nType="0">
        <Node pos="l" depth="1" NCoef="0" IVar="6" Cut="5.3415946960449219e+00" cType="0" res="-9.9000000000000000e+01" rms="0.0000000000000000e+00" purity="4.9846217036247253e-01" nType="0">
          <Node pos="l" depth="2" NCoef="0" IVar="-1" Cut="0.0000000000000000e+00" cType="1" res="-9.9000000000000000e+01" rms="0.0000000000000000e+00" purity="5.8015733957290649e-01" nType="1"/>
          <Node pos="r" depth="2" NCoef="0" IVar="-1" Cut="5.0070161819458008e+00" cType="1" res="-9.9000000000000000e+01" rms="0.0000000000000000e+00" purity="4.9323388934135437e-01" nType="-1"/>
        </Node>
        <Node pos="r" depth="1" NCoef="0" IVar="1" Cut="2.6604780554771423e-01" cType="0" res="-9.9000000000000000e+01" rms="0.0000000000000000e+00" purity="4.3832689523696899e-01" nType="0">
          <Node pos="l" depth="2" NCoef="0" IVar="-1" Cut="0.0000000000000000e+00" cType="1" res="-9.9000000000000000e+01" rms="0.0000000000000000e+00" purity="5.3173083066940308e-01" nType="1"/>
          <Node pos="r" depth="2" NCoef="0" IVar="-1" Cut="0.0000000000000000e+00" cType="1" res="-9.9000000000000000e+01" rms="0.0000000000000000e+00" purity="3.4644332528114319e-01" nType="-1"/>
        </Node>
      </Node>
    </BinaryTree>
    <BinaryTree type="DecisionTree" boostWeight="5.9458675886786501e-02" itree="44">
      <Node pos="s" depth="0" NCoef="0" IVar="6" Cut="5.5888028144836426e+00" cType="1" res="-9.9000000000000000e+01" rms="0.0000000000000000e+00" purity="5.0014472007751465e-01" nType="0">
        <Node pos="l" depth="1" NCoef="0" IVar="1" Cut="9.0398943424224854e-01" cType="1" res="-9.9000000000000000e+01" rms="0.0000000000000000e+00" purity="5.0697684288024902e-01" nType="0">
          <Node pos="l" depth="2" NCoef="0" IVar="1" Cut="-1.6296420097351074e+00" cType="0" res="-9.9000000000000000e+01" rms="0.0000000000000000e+00" purity="5.1507496833801270e-01" nType="0">
            <Node pos="l" depth="3" NCoef="0" IVar="-1" Cut="0.0000000000000000e+00" cType="1" res="-9.9000000000000000e+01" rms="0.0000000000000000e+00" purity="5.1937824487686157e-01" nType="1"/>
            <Node pos="r" depth="3" NCoef="0" IVar="-1" Cut="0.0000000000000000e+00" cType="1" res="-9.9000000000000000e+01" rms="0.0000000000000000e+00" purity="3.7880685925483704e-01" nType="-1"/>
          </Node>
          <Node pos="r" depth="2" NCoef="0" IVar="-1" Cut="-7.0148879289627075e-01" cType="0" res="-9.9000000000000000e+01" rms="0.0000000000000000e+00" purity="4.6312239766120911e-01" nType="-1"/>
        </Node>
        <Node pos="r" depth="1" NCoef="0" IVar="6" Cut="5.9963636398315430e+00" cType="0" res="-9.9000000000000000e+01" rms="0.0000000000000000e+00" purity="4.3818339705467224e-01" nType="0">
          <Node pos="l" depth="2" NCoef="0" IVar="-1" Cut="0.0000000000000000e+00" cType="1" res="-9.9000000000000000e+01" rms="0.0000000000000000e+00" purity="5.1039588451385498e-01" nType="1"/>
          <Node pos="r" depth="2" NCoef="0" IVar="-1" Cut="0.0000000000000000e+00" cType="1" res="-9.9000000000000000e+01" rms="0.0000000000000000e+00" purity="3.2166668772697449e-01" nType="-1"/>
        </Node>
      </Node>
    </BinaryTree>
    <BinaryTree type="DecisionTree" boostWeight="4.7220796811740365e-02" itree="45">
      <Node pos="s" depth="0" NCoef="0" IVar="6" Cut="5.5888028144836426e+00" cType="1" res="-9.9000000000000000e+01" rms="0.0000000000000000e+00" purity="4.9126270413398743e-01" nType="0">
        <Node pos="l" depth="1" NCoef="0" IVar="6" Cut="5.3415946960449219e+00" cType="0" res="-9.9000000000000000e+01" rms="0.0000000000000000e+00" purity="4.9751359224319458e-01" nType="0">
          <Node pos="l" depth="2" NCoef="0" IVar="-1" Cut="0.0000000000000000e+00" cType="1" res="-9.9000000000000000e+01" rms="0.0000000000000000e+00" purity="5.5948072671890259e-01" nType="1"/>
          <Node pos="r" depth="2" NCoef="0" IVar="2" Cut="9.1503601074218750e+02" cType="0" res="-9.9000000000000000e+01" rms="0.0000000000000000e+00" purity="4.9357286095619202e-01" nType="0">
            <Node pos="l" depth="3" NCoef="0" IVar="-1" Cut="0.0000000000000000e+00" cType="1" res="-9.9000000000000000e+01" rms="0.0000000000000000e+00" purity="5.5895662307739258e-01" nType="1"/>
            <Node pos="r" depth="3" NCoef="0" IVar="-1" Cut="0.0000000000000000e+00" cType="1" res="-9.9000000000000000e+01" rms="0.0000000000000000e+00" purity="4.8753240704536438e-01" nType="-1"/>
          </Node>
        </Node>
        <Node pos="r" depth="1" NCoef="0" IVar="-1" Cut="3.0582172393798828e+01" cType="1" res="-9.9000000000000000e+01" rms="0.0000000000000000e+00" purity="4.3440386652946472e-01" nType="-1"/>
      </Node>
    </BinaryTree>
    <BinaryTree type="DecisionTree" boostWeight="8.7668398146621418e-02" itree="46">
      <Node pos="s" depth="0" NCoef="0" IVar="6" Cut="5.0710916519165039e+00" cType="1" res="-9.9000000000000000e+01" rms="0.0000000000000000e+00" purity="5.0010311603546143e-01" nType="0">
        <Node pos="l" depth="1" NCoef="0" IVar="1" Cut="-4.7542557120323181e-01" cType="0" res="-9.9000000000000000e+01" rms="0.0000000000000000e+00" purity="5.0934350490570068e-01" nType="0">
          <Node pos="l" depth="2" NCoef="0" IVar="4" Cut="2.6494422554969788e-01" cType="0" res="-9.9000000000000000e+01" rms="0.0000000000000000e+00" purity="5.2522915601730347e-01" nType="0">
            <Node pos="l" depth="3" NCoef="0" IVar="-1" Cut="0.0000000000000000e+00" cType="1" res="-9.9000000000000000e+01" rms="0.0000000000000000e+00" purity="5.6669747829437256e-01" nType="1"/>
            <Node pos="r" depth="3" NCoef="0" IVar="-1" Cut="0.0000000000000000e+00" cType="1" res="-9.9000000000000000e+01" rms="0.0000000000000000e+00" purity="4.8875543475151062e-01" nType="-1"/>
          </Node>
          <Node pos="r" depth="2" NCoef="0" IVar="4" Cut="6.0394394397735596e-01" cType="1" res="-9.9000000000000000e+01" rms="0.0000000000000000e+00" purity="4.8133933544158936e-01" nType="0">
            <Node pos="l" depth="3" NCoef="0" IVar="-1" Cut="0.0000000000000000e+00" cType="1" res="-9.9000000000000000e+01" rms="0.0000000000000000e+00" purity="5.0628620386123657e-01" nType="1"/>
            <Node pos="r" depth="3" NCoef="0" IVar="-1" Cut="0.0000000000000000e+00" cType="1" res="-9.9000000000000000e+01" rms="0.0000000000000000e+00" purity="3.1179353594779968e-01" nType="-1"/>
          </Node>
        </Node>
        <Node pos="r" depth="1" NCoef="0" IVar="5" Cut="-2.4427232146263123e-01" cType="0" res="-9.9000000000000000e+01" rms="0.0000000000000000e+00" purity="4.6302717924118042e-01" nType="0">
          <Node pos="l" depth="2" NCoef="0" IVar="1" Cut="-4.8641535639762878e-01" cType="1" res="-9.9000000000000000e+01" rms="0.0000000000000000e+00" purity="4.9075520038604736e-01" nType="0">
            <Node pos="l" depth="3" NCoef="0" IVar="-1" Cut="0.0000000000000000e+00" cType="1" res="-9.9000000000000000e+01" rms="0.0000000000000000e+00" purity="5.7626628875732422e-01" nType="1"/>
            <Node pos="r" depth="3" NCoef="0" IVar="-1" Cut="0.0000000000000000e+00" cType="1" res="-9.9000000000000000e+01" rms="0.0000000000000000e+00" purity="4.2930191755294800e-01" nType="-1"/>
          </Node>
          <Node pos="r" depth="2" NCoef="0" IVar="-1" Cut="0.0000000000000000e+00" cType="1" res="-9.9000000000000000e+01" rms="0.0000000000000000e+00" purity="4.0161824226379395e-01" nType="-1"/>
        </Node>
      </Node>
    </BinaryTree>
    <BinaryTree type="DecisionTree" boostWeight="7.1706117701279118e-02" itree="47">
      <Node pos="s" depth="0" NCoef="0" IVar="1" Cut="-2.7836629748344421e-01" cType="0" res="-9.9000000000000000e+01" rms="0.0000000000000000e+00" purity="4.9794614315032959e-01" nType="0">
        <Node pos="l" depth="1" NCoef="0" IVar="-1" Cut="7.1209996938705444e-01" cType="0" res="-9.9000000000000000e+01" rms="0.0000000000000000e+00" purity="5.1970922946929932e-01" nType="1"/>
        <Node pos="r" depth="1" NCoef="0" IVar="6" Cut="5.5910377502441406e+00" cType="1" res="-9.9000000000000000e+01" rms="0.0000000000000000e+00" purity="4.6964463591575623e-01" nType="0">
          <Node pos="l" depth="2" NCoef="0" IVar="6" Cut="4.2325348854064941e+00" cType="0" res="-9.9000000000000000e+01" rms="0.0000000000000000e+00" purity="4.8215305805206299e-01" nType="0">
            <Node pos="l" depth="3" NCoef="0" IVar="-1" Cut="0.0000000000000000e+00" cType="1" res="-9.9000000000000000e+01" rms="0.0000000000000000e+00" purity="5.2823489904403687e-01" nType="1"/>
            <Node pos="r" depth="3" NCoef="0" IVar="-1" Cut="0.0000000000000000e+00" cType="1" res="-9.9000000000000000e+01" rms="0.0000000000000000e+00" purity="4.3460404872894287e-01" nType="-1"/>
          </Node>
          <Node pos="r" depth="2" NCoef="0" IVar="-1" Cut="0.0000000000000000e+00" cType="1" res="-9.9000000000000000e+01" rms="0.0000000000000000e+00" purity="3.2799038290977478e-01" nType="-1"/>
        </Node>
      </Node>
    </BinaryTree>
    <BinaryTree type="DecisionTree" boostWeight="6.8908700052790345e-02" itree="48">
      <Node pos="s" depth="0" NCoef="0" IVar="5" Cut="7.1209996938705444e-01" cType="0" res="-9.9000000000000000e+01" rms="0.0000000000000000e+00" purity="4.8830649256706238e-01" nType="0">
        <Node pos="l" depth="1" NCoef="0" IVar="1" Cut="-1.4825841784477234e-01" cType="0" res="-9.9000000000000000e+01" rms="0.0000000000000000e+00" purity="5.4573374986648560e-01" nType="0">
          <Node pos="l" depth="2" NCoef="0" IVar="-1" Cut="0.0000000000000000e+00" cType="1" res="-9.9000000000000000e+01" rms="0.0000000000000000e+00" purity="5.9278267621994019e-01" nType="1"/>
          <Node pos="r" depth="2" NCoef="0" IVar="-1" Cut="0.0000000000000000e+00" cType="1" res="-9.9000000000000000e+01" rms="0.0000000000000000e+00" purity="4.8453003168106079e-01" nType="-1"/>
        </Node>
        <Node pos="r" depth="1" NCoef="0" IVar="6" Cut="4.5018453598022461e+00" cType="1" res="-9.9000000000000000e+01" rms="0.0000000000000000e+00" purity="4.8351538181304932e-01" nType="0">
          <Node pos="l" depth="2" NCoef="0" IVar="3" Cut="1.4654661560058594e+02" cType="0" res="-9.9000000000000000e+01" rms="0.0000000000000000e+00" purity="4.9735921621322632e-01" nType="0">
            <Node pos="l" depth="3" NCoef="0" IVar="-1" Cut="0.0000000000000000e+00" cType="1" res="-9.9000000000000000e+01" rms="0.0000000000000000e+00" purity="5.7045924663543701e-01" nType="1"/>
            <Node pos="r" depth="3" NCoef="0" IVar="-1" Cut="0.0000000000000000e+00" cType="1" res="-9.9000000000000000e+01" rms="0.0000000000000000e+00" purity="4.8089751601219177e-01" nType="-1"/>
          </Node>
          <Node pos="r" depth="2" NCoef="0" IVar="-1" Cut="1.7218250274658203e+01" cType="0" res="-9.9000000000000000e+01" rms="0.0000000000000000e+00" purity="4.6169233322143555e-01" nType="-1"/>
        </Node>
      </Node>
    </BinaryTree>
    <BinaryTree type="DecisionTree" boostWeight="5.8914023328648223e-02" itree="49">
      <Node pos="s" depth="0" NCoef="0" IVar="3" Cut="2.0489959716796875e+02" cType="1" res="-9.9000000000000000e+01" rms="0.0000000000000000e+00" purity="5.0045353174209595e-01" nType="0">
        <Node pos="l" depth="1" NCoef="0" IVar="0" Cut="1.4788680076599121e+01" cType="0" res="-9.9000000000000000e+01" rms="0.0000000000000000e+00" purity="5.0441348552703857e-01" nType="0">
          <Node pos="l" depth="2" NCoef="0" IVar="4" Cut="7.1174792945384979e-02" cType="1" res="-9.9000000000000000e+01" rms="0.0000000000000000e+00" purity="5.0969779491424561e-01" nType="0">
            <Node pos="l" depth="3" NCoef="0" IVar="-1" Cut="0.0000000000000000e+00" cType="1" res="-9.9000000000000000e+01" rms="0.0000000000000000e+00" purity="5.3062397241592407e-01" nType="1"/>
            <Node pos="r" depth="3" NCoef="0" IVar="-1" Cut="0.0000000000000000e+00" cType="1" res="-9.9000000000000000e+01" rms="0.0000000000000000e+00" purity="4.8574957251548767e-01" nType="-1"/>
          </Node>
          <Node pos="r" depth="2" NCoef="0" IVar="-1" Cut="2.9586467742919922e+01" cType="1" res="-9.9000000000000000e+01" rms="0.0000000000000000e+00" purity="3.8130241632461548e-01" nType="-1"/>
        </Node>
        <Node pos="r" depth="1" NCoef="0" IVar="-1" Cut="0.0000000000000000e+00" cType="1" res="-9.9000000000000000e+01" rms="0.0000000000000000e+00" purity="4.1967442631721497e-01" nType="-1"/>
      </Node>
    </BinaryTree>
    <BinaryTree type="DecisionTree" boostWeight="4.6906915069483184e-02" itree="50">
      <Node pos="s" depth="0" NCoef="0" IVar="5" Cut="-8.0929267406463623e-01" cType="1" res="-9.9000000000000000e+01" rms="0.0000000000000000e+00" purity="5.0081431865692139e-01" nType="0">
        <Node pos="l" depth="1" NCoef="0" IVar="-1" Cut="0.0000000000000000e+00" cType="1" res="-9.9000000000000000e+01" rms="0.0000000000000000e+00" purity="6.0237538814544678e-01" nType="1"/>
